SVM-light Version V5.01-TK-1.2
5 # kernel type
3 # kernel parameter -d 
1 # kernel parameter -g 
1 # kernel parameter -s 
1 # kernel parameter -r 
empty# kernel parameter -u 
0.4 # kernel parameter -L 
1 # kernel parameter -T 
T # kernel parameter -C 
1 # kernel parameter -F 
1 # kernel parameter -S 
1.000000 # kernel parameter -D 
3 # kernel parameter -N 
S # kernel parameter -V 
S # kernel parameter -W 
0 # highest feature index 
21802 # number of training documents 
612 # number of support vectors plus 1 
1.1398469 # threshold b, each following line is a SV (starting with alpha*y)
-0.37281969237034479069947678908648  |BT| (NP (NP (NP (PER (NN wife)))(PP (IN of)(NP (NNP Egyptian)(NNP President)(NNP Hosni)(NNP Mubarak))))(CC and)(NP (NP (CD one))(PP (IN of)(NP (DT the)(NN conference)(PER (NNS organizers)))))) |ET| 
-0.15569020613970452338037375739077  |BT| (NP (NP (ORG (NN college))(NN football)(POS 's))(JJS most)(JJ storied)(ORG (NNS programs))) |ET| 
-0.50181316104206852291014229194843  |BT| (NP (NP (QP (PER (CD one))))(PP (IN of)(NP (DT the)(ORG (NN league))))) |ET| 
-0.11033958514672348449892069766065  |BT| (NP (NP (PER (NNS skeptics)))(SBAR (WHNP (WP who))(S (VP (VBD were)(RB not)(VP (VBG advising)(NP (PER (NNS clients)))))))) |ET| 
1  |BT| (NP (NP (PER (NN member)))(PP (IN of)(NP (NP (NNP Suharto)(POS 's))(PER (NN family))))) |ET| 
1  |BT| (NP (NP (GPE (NN community)))(PP (IN of)(NP (GPE (NNS nations))))) |ET| 
1  |BT| (VP (PP (NP (ORG (NNS commissions))))(PP (IN with)(NP (NP (JJ key)(NNS countries))(, ,)(PP (VBG including)(NP (ORG (CD one))))))) |ET| 
1  |BT| (NP (NP (PER (CD one)))(PP (IN of)(NP (NP (NNP Milosevic)(POS 's))(JJS closest)(PER (NNS cronies))))) |ET| 
1  |BT| (NP (NP (PER (DT some)))(PP (IN of)(NP (PER (NP (DT the)(NN country)(POS 's))(JJS most)(NX (NX (JJ senior)(NNS politicians))(CC and)(NX (NN underworld)(NNS figures))))))) |ET| 
-0.0079383813829556615360161231365055  |BT| (GPE (NNP South)(NNP Korean)(NN labor)(ORG (NNS groups))) |ET| 
1  |BT| (NP (NP (GPE (NNS countries)))(, ,)(PP (VBG including)(NP (NNP Jordan)(, ,)(GPE (NNP Egypt))))) |ET| 
-1  |BT| (NP (NP (GPE (NNS countries)))(, ,)(PP (VBG including)(NP (ORG (CD one))))) |ET| 
1  |BT| (S (NP (GPE (NNP Serbia)))(VP (VBP have)(VP (VBN joined)(NP (DT the)(GPE (NN family)))))) |ET| 
-0.052061979593411820965709324582349  |BT| (NP (NP (ORG (DT The)(NNP News)(NNP Sun)))(CC and)(NP (NP (JJ other)(JJ northern)(NNP Illinois)(NNP Copley)(NNS newspapers))(, ,)(PP (VBG including)(NP (NP (DT The)(NN Courier)(NNP News)(IN in)(NNP Elgin))(, ,)(NP (NP (DT The)(NNP Beacon)(NNP News))(PP (IN in)(NP (NNP Aurora))))(CC and)(NP (ORG (NNP The)(NNP Herald)(NNP News))))))) |ET| 
1  |BT| (NP (NP (PER (NN anyone)))(PRN (, ,)(ADVP (RB even))(NP (PER (DT those))))) |ET| 
-0.31590635387096321906597040651832  |BT| (NP (NP (PER (NN anyone)))(PRN (, ,)(ADVP (RB even))(NP (NP (DT those))(SBAR (WHNP (PER (WP who))))))) |ET| 
1  |BT| (NP (NP (GPE (NNS battlegrounds)))(PP (IN as)(NP (GPE (NNP Michigan))))) |ET| 
-1  |BT| (NP (NP (GPE (NNS countries)))(PP (IN like)(NP (GPE (NNP Chile))))) |ET| 
1  |BT| (NP (NP (FAC (NNS polls)))(PRN (-LRB- [)(PP (VBG including)(NP (FAC (DT those)))))) |ET| 
-0.94878878629084972828877653228119  |BT| (S (NP (PER (NNS voters)))(VP (VBG leaving)(NP (NP (DT the)(NNS polls))(PRN (-LRB- [)(PP (VBG including)(NP (FAC (DT those)))))))) |ET| 
1  |BT| (NP (NP (GPE (NNS cities)))(PP (IN like)(NP (GPE (NNP Seattle))))) |ET| 
-0.31444974547176185453167818195652  |BT| (NP (NP (GPE (NNS people)))(PP (IN of)(NP (GPE (NNP British)(NNP Columbia))))) |ET| 
1  |BT| (S (NP (PER (NNS groups)))(VP (VBP _)(SBAR (S (NP (PER (NNS voters))))))) |ET| 
-0.041780266203912209965753987717108  |BT| (S (NP (PER (NNS Experts)))(VP (VBP say)(SBAR (S (NP (DT the)(GPE (NN nation))))))) |ET| 
1  |BT| (S (NP (NP (GPE (NNP Saudi)(NNP Arabia)))(, ,)(NP (NNP Qatar))(CC and)(NP (NNP Algeria)))(VP (VBD were)(NP (DT the)(JJ only)(NNP Arab)(NNP League)(GPE (NNS countries))))) |ET| 
-0.54942131819825446026328563675634  |BT| (S (NP (NP (GPE (NNP Saudi)(NNP Arabia)))(, ,)(NP (NNP Qatar))(CC and)(NP (NNP Algeria)))(VP (VBD were)(NP (ORG (DT the)(JJ only)(NNP Arab)(NNP League))))) |ET| 
1  |BT| (NP (NP (QP (PER (NN half))))(PP (IN of)(NP (DT the)(JJ American)(GPE (NN public))))) |ET| 
-0.69816372471824961198905157289119  |BT| (NP (NP (QP (PER (NN half))))(PP (IN of)(NP (DT the)(GPE (JJ American))))) |ET| 
1  |BT| (NP (NP (ORG (NNS rivals)))(PP (IN like)(NP (NP (NNP Microsoft))(, ,)(NP (ORG (NP (NNP AT&AMP))(: ;)(NP (NN T))))))) |ET| 
-0.4107589975090428779935791681055  |BT| (NP (NP (ORG (NNP Microsoft)))(, ,)(NP (ORG (NP (NNP AT&AMP))(: ;)(NP (NN T))))) |ET| 
1  |BT| (NP (NP (QP (WEA (CD one))))(PP (IN of)(NP (DT the)(WEA (NNS bomblets))))) |ET| 
-0.21989404516250612986461021591822  |BT| (VP (PP (NP (ORG (NNS commissions))))(PP (IN with)(NP (NP (JJ key)(NNS countries))(, ,)(PP (VBG including)(NP (NP (CD one))(PP (IN with)(NP (PER (JJ former)(NNP Russian)(NNP Prime)(NNP Minister)(NNP Viktor)(NNP Chernomyrdin))))))))) |ET| 
1  |BT| (NP (NP (GPE (NNS countries)))(, ,)(PP (VBG including)(NP (NNP Jordan)(, ,)(NNP Egypt)(CC and)(GPE (NNP Lebanon))))) |ET| 
-0.57878768093457666488177437713603  |BT| (NP (NP (PER (NNS counterparts)))(PP (IN in)(NP (NP (ADJP (RBR more)(JJ liberal))(NNS countries))(, ,)(PP (VBG including)(NP (NNP Jordan)(, ,)(NNP Egypt)(CC and)(GPE (NNP Lebanon))))))) |ET| 
1  |BT| (VP (NP (PP (NP (ORG (NNS competitors)))))(, ,)(PP (IN like)(NP (ORG (NNP EMC))))) |ET| 
-0.016603834505967855761365825628673  |BT| (VP (NP (PER (NNS voters)))(PP (TO to)(NP (FAC (DT the)(NNP Innsbrook)(NN resort))))) |ET| 
1  |BT| (NP (NP (PER (NNS Men)))(PP (IN in)(NP (JJ civilian)(NNS clothes)))(PP (IN in)(NP (DT the)(PER (NN crowd))))) |ET| 
-0.050661147603455691790230730475741  |BT| (NP (NP (PER (NNP Bill)(NNP DeWitt)(CC and)(NNP Mercer)(NNP Reynolds)))(, ,)(NP (NP (NNS co-chairs))(PP (IN of)(NP (NP (DT the)(JJ Ohio-based)(NN investment)(NN firm))(PP (IN of)(NP (NNP Reynolds)(, ,)(NNP DeWitt)(CC and)(NNP Company))))))(: ;)(NP (PER (NNP Brad)(NNP Freeman)))) |ET| 
1  |BT| (S (S (VP (PP (NP (PP (NP (ORG (NNS competitors))))))(NP (CD _)(NN iCAST))))(CC and)(S (NP (ORG (NNP Tribal)(NNP Voice))))) |ET| 
-0.18798978563984269918307745683705  |BT| (S (S (NP (PER (DT Some)))(VP (VBD pointed)(PP (TO to)(NP (NP (DT the)(JJ recent)(NN demise))(PP (IN of)(NP (CD two)(JJ instant)(VBG messaging)(NNS competitors)))))(NP (CD _)(NN iCAST))))(CC and)(S (NP (ORG (NNP Tribal)(NNP Voice))))) |ET| 
1  |BT| (S (NP (PER (NNS soldiers)))(VP (VBD were)(VP (VBN wounded)(, ,)(NP (PER (CD one)))))) |ET| 
-0.32263006330739457672152070699667  |BT| (S (NP (GPE (NNP Israeli))(NNS soldiers))(VP (VBD were)(VP (VBN wounded)(, ,)(NP (PER (CD one)))))) |ET| 
1  |BT| (NP (NP (GPE (JJ Many)))(PP (IN of)(NP (NP (NNP Germany)(POS 's))(NNS neighbors)))(, ,)(PP (VBG including)(NP (GPE (NNP France))))) |ET| 
-1  |BT| (NP (NP (PER (NNS groups)))(PP (IN like)(NP (PER (JJ Jewish))))) |ET| 
1  |BT| (GPE (NP (NP (NNP Yugoslavia))(CC and)(NP (NNP Serbia)))(VP (VBP have)(VP (VBN joined)(NP (DT the)(GPE (NN family)))))) |ET| 
-0.078982747627620406016824006201205  |BT| (NP (PER (PRP us))(PER (NNS villains))) |ET| 
1  |BT| (NP (NP (PER (NNS enthusiasts)))(PP (IN like)(NP (PER (NNP Kurtis)(NNP R.)(NNP King))))) |ET| 
-0.46596076731199248532888645968342  |BT| (NP (NP (ORG (NNP Compaq))(NNS enthusiasts))(PP (IN like)(NP (PER (NNP Kurtis)(NNP R.)(NNP King))))) |ET| 
1  |BT| (NP (NP (PER (JJ few)))(PP (IN of)(PRP$ his)(PER (NNS teammates)))) |ET| 
-0.98615705837767919650360681771417  |BT| (NP (NP (PER (NN family)))(CC and)(NP (NP (DT every)(CD one))(PP (IN of)(PRP$ my)(PER (NNS teammates))))) |ET| 
1  |BT| (NP (NP (PP (NP (NP (NP (PER (NNS groups)))(PP (IN like)(NP (JJ Jewish)(CC or)(JJ Asian)(NNS voters))))(CC or)(NP (JJ young)(NNS blacks)))))(CC or)(NP (JJ liberal)(PER (NNPS Republicans)))) |ET| 
-0.49543313121793841613538234014413  |BT| (NP (NP (PP (NP (NP (NP (PER (NNS groups)))(PP (IN like)(NP (JJ Jewish)(CC or)(JJ Asian)(NNS voters))))(CC or)(NP (JJ young)(NNS blacks)))))(CC or)(NP (NP (JJ liberal)(NNPS Republicans))(SBAR (WHNP (PER (WP$ whose)))))) |ET| 
1  |BT| (NP (PER (NN audience))(PER (NN member))) |ET| 
-0.2104180845098502228296410976327  |BT| (NP (PER (NN family))(PER (NN man))) |ET| 
1  |BT| (S (NP (NP (PER (NNS skeptics)))(SBAR (WHNP (WP who))(S (VP (VBD were)(RB not)(VP (VBG advising)(NP (NNS clients))(S (VP (TO to)(VP (VB buy)(NP (DT the)(NN stock))))))))))(, ,)(PP (IN like)(NP (PER (NNP Charles)(NNP R.)(NNP Wolf))))) |ET| 
-0.18196207651009094208305327811104  |BT| (S (NP (NP (PER (NNS skeptics)))(SBAR (WHNP (WP who))(S (VP (VBD were)(RB not)(VP (VBG advising)(NP (NNS clients))(S (VP (TO to)(VP (VB buy)(NP (DT the)(NN stock))))))))))(, ,)(PP (IN like)(NP (NP (NNP Charles)(NNP R.)(NNP Wolf))(PP (IN at)(NP (ORG (NNP UBS)(NNP Warburg))))))) |ET| 
1  |BT| (NP (NP (LOC (NN region)))(PP (IN of)(NP (DT the)(LOC (NN world))))) |ET| 
-0.6532297184270809964345971820876  |BT| (NP (NP (PER (NNS residents)))(PP (IN of)(NP (DT the)(LOC (NN district))))) |ET| 
-0.19687618230688308518239182376419  |BT| (NP (NP (PER (NNS voters)))(, ,)(NP (NNPS Democrats))(, ,)(NP (PER (NNS liberals)))) |ET| 
1  |BT| (S (NP (PER (NNS groups)))(VP (VBP _)(SBAR (S (NP (NP (NP (NNS voters))(PP (IN under)(NP (CD 65))))(, ,)(NP (NNS independents))(, ,)(NP (NP (NNS voters))(PP (IN from)(NP (NP (DT the)(NNP Midwest))(CC and)(NP (DT the)(NNP West)))))(CC and)(NP (PER (NNS suburbanites)))))))) |ET| 
-0.48983533683057300933683109178673  |BT| (NP (NP (NP (PER (NNS voters)))(PP (IN under)(NP (CD 65))))(, ,)(NP (NNS independents))(, ,)(NP (NP (NNS voters))(PP (IN from)(NP (NP (DT the)(NNP Midwest))(CC and)(NP (DT the)(NNP West)))))(CC and)(NP (PER (NNS suburbanites)))) |ET| 
1  |BT| (GPE (NP (NNP Florida))(CC and)(NP (NP (NNP Pennsylvania)(NNP _))(PP (IN among)(NP (DT the)(JJ tossup)(GPE (NNS states)))))) |ET| 
-0.18829954421756101012874751177151  |BT| (GPE (NP (NNP Florida))(CC and)(NP (NP (NNP Pennsylvania)(NNP _))(PP (IN among)(NP (NP (DT the)(JJ tossup)(NNS states))(PP (IN in)(NP (DT the)(PER (JJ presidential)))))))) |ET| 
1  |BT| (NP (NP (PER (NNS undergraduates)))(VP (VBG _)(NP (NP (NP (CD 54)(NN percent))(VP (VBG attending)(NP (JJ four-year)(JJ public)(NNS institutions))))(, ,)(NP (NP (CD 27)(NN percent))(PP (IN at)(NP (JJ four-year)(JJ private)(NNS schools))))(, ,)(NP (NP (CD 17)(NN percent))(PP (IN at)(NP (JJ two-year)(NN community)(NNS colleges))))(CC and)(NP (PER (CD 1)(NN percent)))))) |ET| 
-0.38024179335778313104654557719186  |BT| (S (NP (NP (ORG (NNP College)(NNP Board)(POS 's)))(NNS figures))(VP (VB concern)(NP (NP (DT the)(NNS costs))(PP (IN for)(NP (NP (QP (CD 6.4)(CD million))(JJ full-time)(NNS undergraduates))(VP (VBG _)(NP (NP (NP (CD 54)(NN percent))(VP (VBG attending)(NP (JJ four-year)(JJ public)(NNS institutions))))(, ,)(NP (NP (CD 27)(NN percent))(PP (IN at)(NP (JJ four-year)(JJ private)(NNS schools))))(, ,)(NP (NP (CD 17)(NN percent))(PP (IN at)(NP (JJ two-year)(NN community)(NNS colleges))))(CC and)(NP (PER (CD 1)(NN percent)))))))))) |ET| 
1  |BT| (NP (NP (ORG (NNS companies)))(PP (IN like)(NP (ORG (NNP Comcast))))) |ET| 
-0.0017981118984764510315699226339348  |BT| (NP (NP (ORG (NNS schools)))(, ,)(RB chiefly)(NP (NN community)(ORG (NNS colleges)))) |ET| 
1  |BT| (NP (NP (PER (NN rest)))(PP (IN of)(NP (DT the)(PER (NNS advisers))))) |ET| 
-1  |BT| (NP (NP (PER (NN audience)))(PP (IN of)(NP (PER (NNS pilgrims))))) |ET| 
1  |BT| (NP (NP (ORG (NNS newspapers)))(, ,)(PP (VBG including)(NP (NP (DT The)(NN Courier)(NNP News)(IN in)(NNP Elgin))(, ,)(NP (NP (DT The)(NNP Beacon)(NNP News))(PP (IN in)(NP (NNP Aurora))))(CC and)(NP (ORG (NNP The)(NNP Herald)(NNP News)))))) |ET| 
-0.26514848824703407537128896365175  |BT| (NP (NP (LOC (NNP Illinois))(NNP Copley)(NNS newspapers))(, ,)(PP (VBG including)(NP (NP (DT The)(NN Courier)(NNP News)(IN in)(NNP Elgin))(, ,)(NP (NP (DT The)(NNP Beacon)(NNP News))(PP (IN in)(NP (NNP Aurora))))(CC and)(NP (ORG (NNP The)(NNP Herald)(NNP News)))))) |ET| 
1  |BT| (NP (NP (PER (NN army)))(PP (IN of)(NP (PER (NNS lawyers))))) |ET| 
-0.09930549254851368801144673170711  |BT| (NP (NP (PER (NN member)))(PP (IN of)(NP (PER (NNP Suharto))))) |ET| 
1  |BT| (VP (NP (WEA (NNS bomblets)(, ,)('' '')))(PP (IN at)(NP (NP (JJS least))(VP (ADVP (WEA (RB half))))))) |ET| 
-0.34039640536624382605168648296967  |BT| (VP (NP (WEA (NNS bomblets)(, ,)('' '')))(PP (IN at)(NP (NP (JJS least))(VP (ADVP (RB half))(VBG containing)(NP (JJ deadly)(NN sarin)(NN nerve)(WEA (NN gas))))))) |ET| 
1  |BT| (NP (NP (PER (JJS most)))(PP (IN of)(NP (PER (PRP them))))) |ET| 
-0.59580683050501215269889598857844  |BT| (NP (NP (PER (JJS most)))(PP (IN of)(NP (PRP them)(PER (NNPS Sikhs))))) |ET| 
1  |BT| (S (NP (NP (GPE (NNP Qatar)))(CC and)(NP (NNP Algeria)))(VP (VBD were)(NP (DT the)(JJ only)(NNP Arab)(NNP League)(GPE (NNS countries))))) |ET| 
-0.44417472625485987514082353300182  |BT| (NP (PP (NP (GPE (NNS neighbors))))(, ,)(PP (VBG including)(NP (GPE (NNP France))))) |ET| 
1  |BT| (NP (NP (PER (NN majority)))(PP (IN of)(NP (NP (NNS women))(, ,)(NP (JJR older)(NNS voters))(, ,)(NP (PER (NNPS Democrats)))))) |ET| 
-0.42747230573135852615962448908249  |BT| (NP (NP (PER (NNS women)))(, ,)(NP (JJR older)(NNS voters))(, ,)(NP (PER (NNPS Democrats)))) |ET| 
1  |BT| (NP (NP (GPE (NNS countries)))(, ,)(PP (VBG including)(NP (GPE (NNP Jordan))))) |ET| 
-0.97281888724754195241217757939012  |BT| (NP (NP (PER (NNS surrogates)))(, ,)(PP (VBG including)(NP (NP (NNS members))(PP (IN of)(NP (ORG (NNP Congress))))))) |ET| 
1  |BT| (NP (NP (PER (NNS sons)))(, ,)(NP (PER (NNP Richard)))) |ET| 
-0.38374709607510704145738600345794  |BT| (NP (NP (PER (NNS independents)))(, ,)(NP (PER (NNS voters)))) |ET| 
1  |BT| (NP (NP (VEH (DT each)))(PP (IN of)(NP (PRP$ our)(VEH (NN aircraft))))) |ET| 
-0.1905750793126130548937879893856  |BT| (NP (NP (VEH (DT each)))(PP (IN of)(NP (ORG (PRP$ our))))) |ET| 
1  |BT| (NP (NP (PER (NNS surrogates)))(, ,)(PP (VBG including)(NP (PER (NNS members))))) |ET| 
-1  |BT| (NP (NP (PER (NNS surrogates)))(, ,)(PP (VBG including)(NP (PER (PRP$ his))))) |ET| 
1  |BT| (NP (NP (PER (NN majority)))(PP (IN of)(NP (NP (NNS women))(, ,)(NP (JJR older)(NNS voters))(, ,)(NP (NNPS Democrats))(, ,)(NP (NNS liberals))(CC and)(NP (ADJP (JJ black)(, ,)(NNP Hispanic)(CC and)(NNP Asian))(PER (NNS voters)))))) |ET| 
-0.35714993710515630098711881146301  |BT| (NP (NP (PER (NN majority)))(PP (IN of)(NP (NP (NNS women))(, ,)(NP (JJR older)(NNS voters))(, ,)(NP (NNPS Democrats))(, ,)(NP (NNS liberals))(CC and)(NP (ADJP (PER (JJ black))))))) |ET| 
1  |BT| (NP (NP (PER (NNS independents)))(PRN (, ,)(ADVP (RB particularly))(NP (JJ liberal)(PER (NNS ones))))) |ET| 
-0.1412314004690196356239795250076  |BT| (NP (NP (PER (NNS leaders)))(CC and)(NP (DT the)(PER (NNS officials)))) |ET| 
1  |BT| (NP (NP (ORG (NNS newspapers)))(, ,)(PP (VBG including)(NP (NP (DT The)(NN Courier)(NNP News)(IN in)(NNP Elgin))(, ,)(NP (ORG (DT The)(NNP Beacon)(NNP News)))))) |ET| 
-0.17927909571035405278394136985298  |BT| (NP (NP (ORG (NNP Copley))(NNS newspapers))(, ,)(PP (VBG including)(NP (NP (DT The)(NN Courier)(NNP News)(IN in)(NNP Elgin))(, ,)(NP (ORG (DT The)(NNP Beacon)(NNP News)))))) |ET| 
1  |BT| (NP (NP (PER (NN majority)))(PP (IN of)(NP (PER (NNS women))))) |ET| 
-1  |BT| (NP (NP (PER (NN majority)))(PP (IN of)(NP (PER (NNS women))))) |ET| 
1  |BT| (NP (NP (PER (NNS surrogates)))(, ,)(PP (VBG including)(NP (NP (NP (PRP$ his)(VBG running)(NN mate))(, ,)(NP (NNP Sen.)(NNP Joseph)(NNP Lieberman))(, ,))(CC and)(NP (NP (DT the)(NNP Democratic)(NNP National)(NNP Committee)(POS 's))(JJ national)(PER (NN chairman)))))) |ET| 
-0.55273966196357771085700960611575  |BT| (NP (NP (NP (PER (NNP Gore))(POS 's))(NNS surrogates))(, ,)(PP (VBG including)(NP (NP (NP (PRP$ his)(VBG running)(NN mate))(, ,)(NP (NNP Sen.)(NNP Joseph)(NNP Lieberman))(, ,))(CC and)(NP (NP (DT the)(NNP Democratic)(NNP National)(NNP Committee)(POS 's))(JJ national)(PER (NN chairman)))))) |ET| 
1  |BT| (S (NP (PER (NNS groups)))(VP (VBP _)(SBAR (S (NP (NP (NP (NNS voters))(PP (IN under)(NP (CD 65))))(, ,)(NP (NNS independents))(, ,)(NP (PER (NNS voters)))))))) |ET| 
-0.64543656567808227464411174878478  |BT| (S (NP (PER (NNS groups)))(VP (VBP _)(SBAR (S (NP (NP (NP (NNS voters))(PP (IN under)(NP (CD 65))))(, ,)(NP (NNS independents))(, ,)(NP (NP (NNS voters))(PP (IN from)(NP (DT the)(LOC (NNP Midwest)))))))))) |ET| 
1  |BT| (NP (NP (PER (NN half)))(PP (IN of)(NP (NP (DT the)(NN nation)(POS 's))(PER (NNPS Indo-Canadians))))) |ET| 
-0.51350299024056944574567751260474  |BT| (SBAR (WHADVP (LOC (WRB where)))(S (NP (NP (NN half))(PP (IN of)(NP (NP (DT the)(NN nation)(POS 's))(PER (NNPS Indo-Canadians))))))) |ET| 
1  |BT| (S (NP (PER (NNS members)))(VP (VBD raised)(NP (QP (IN at)(JJS least)($ $)(CD 100,000)))(PP (IN for)(NP (NP (NNP Bush)(POS 's))(NN campaign)))(: :)(NP (NP (NNP Bill)(NNP DeWitt)(CC and)(NNP Mercer)(NNP Reynolds))(, ,)(NP (NP (NNS co-chairs))(PP (IN of)(NP (NP (DT the)(JJ Ohio-based)(NN investment)(NN firm))(PP (IN of)(NP (NNP Reynolds)(, ,)(NNP DeWitt)(CC and)(NNP Company))))))(: ;)(NP (NP (NNP Brad)(NNP Freeman))(, ,)(NP (DT a)(NNP California)(NN investor)))(: ;)(CC and)(NP (PER (NNP Florida)(NN developer)(NNP Al)(NNP Hoffman)))))) |ET| 
-0.57305518244170372543777602913906  |BT| (S (NP (ORG (NN committee))(NNS members))(VP (VBD raised)(NP (QP (IN at)(JJS least)($ $)(CD 100,000)))(PP (IN for)(NP (NP (NNP Bush)(POS 's))(NN campaign)))(: :)(NP (NP (NNP Bill)(NNP DeWitt)(CC and)(NNP Mercer)(NNP Reynolds))(, ,)(NP (NP (NNS co-chairs))(PP (IN of)(NP (NP (DT the)(JJ Ohio-based)(NN investment)(NN firm))(PP (IN of)(NP (NNP Reynolds)(, ,)(NNP DeWitt)(CC and)(NNP Company))))))(: ;)(NP (NP (NNP Brad)(NNP Freeman))(, ,)(NP (DT a)(NNP California)(NN investor)))(: ;)(CC and)(NP (PER (NNP Florida)(NN developer)(NNP Al)(NNP Hoffman)))))) |ET| 
1  |BT| (NP (NP (WEA (JJ first)))(PP (IN of)(NP (DT the)(JJ grapefruit-size)(WEA (NNS bomblets))))) |ET| 
-0.31657772721299076712497821972647  |BT| (NP (NP (PER (NN commander)))(PP (IN of)(NP (JJ Israeli)(PER (NNS troops))))) |ET| 
1  |BT| (S (PP (NP (NP (PER (NNS contributors)))(PP (TO to)(NP (PRP$ his)(NN campaign)))))(, ,)(NP (QP (JJR fewer)(IN than)(PER (CD 20))))) |ET| 
-0.17407323241692695958704462100286  |BT| (S (PP (NP (NP (PER (NNS contributors)))(PP (TO to)(NP (PRP$ his)(NN campaign)))))(, ,)(NP (QP (JJR fewer)(IN than)(CD 20)))(VP (VBP are)(PP (IN from)(PP (IN out)(PP (IN of)(NP (GPE (NNP Texas)))))))) |ET| 
1  |BT| (NP (NP (PER (NN band)))(PP (IN of)(NP (JJ undecided)(PER (NNS voters))))) |ET| 
-1  |BT| (NP (NP (PER (NN group)))(PP (IN of)(NP (JJ undecided)(PER (NNS voters))))) |ET| 
1  |BT| (S (NP (PER (NNS members)))(VP (VBD raised)(NP (QP (IN at)(JJS least)($ $)(CD 100,000)))(PP (IN for)(NP (NP (NNP Bush)(POS 's))(NN campaign)))(: :)(NP (NP (NNP Bill)(NNP DeWitt)(CC and)(NNP Mercer)(NNP Reynolds))(, ,)(NP (NP (NNS co-chairs))(PP (IN of)(NP (NP (DT the)(JJ Ohio-based)(NN investment)(NN firm))(PP (IN of)(NP (NNP Reynolds)(, ,)(NNP DeWitt)(CC and)(NNP Company))))))(: ;)(NP (PER (NNP Brad)(NNP Freeman)))))) |ET| 
-0.58112954132601712942118865612429  |BT| (S (NP (ORG (NN committee))(NNS members))(VP (VBD raised)(NP (QP (IN at)(JJS least)($ $)(CD 100,000)))(PP (IN for)(NP (NP (NNP Bush)(POS 's))(NN campaign)))(: :)(NP (NP (NNP Bill)(NNP DeWitt)(CC and)(NNP Mercer)(NNP Reynolds))(, ,)(NP (NP (NNS co-chairs))(PP (IN of)(NP (NP (DT the)(JJ Ohio-based)(NN investment)(NN firm))(PP (IN of)(NP (NNP Reynolds)(, ,)(NNP DeWitt)(CC and)(NNP Company))))))(: ;)(NP (PER (NNP Brad)(NNP Freeman)))))) |ET| 
1  |BT| (NP (NP (PER (NN majority)))(PP (IN of)(NP (NP (NNS women))(, ,)(NP (JJR older)(PER (NNS voters)))))) |ET| 
-0.63484189402974133820123370242072  |BT| (NP (NP (PER (NNS women)))(, ,)(NP (JJR older)(PER (NNS voters)))) |ET| 
1  |BT| (NP (NP (ORG (CD one)))(PP (IN of)(NP (NP (NN college)(NN football)(POS 's))(JJS most)(JJ storied)(ORG (NNS programs))))) |ET| 
-0.19174736246835832886858952406328  |BT| (S (NP (PER (NNP Franchione)))(ADVP (RB apparently))(VP (MD could)(RB n't)(VP (VB resist)(NP (NP (DT the)(NN lure))(PP (IN of)(NP (NP (CD one))(PP (IN of)(NP (NP (NN college)(NN football)(POS 's))(JJS most)(JJ storied)(ORG (NNS programs)))))))))) |ET| 
1  |BT| (NP (NP (PER (NNS people)))(, ,)(NP (PER (JJS most)))) |ET| 
-0.77144740353275398359045311735827  |BT| (NP (NP (PER (NNS delegates)))(, ,)(NP (PER (JJS most)))) |ET| 
1  |BT| (NP (NP (NP (PER (NNS groups)))(PP (IN like)(NP (JJ Jewish)(CC or)(JJ Asian)(NNS voters))))(CC or)(NP (JJ young)(PER (NNS blacks)))) |ET| 
-0.84903170244500991703517911446397  |BT| (NP (NP (PER (NNS groups)))(PP (IN like)(NP (JJ Jewish)(CC or)(PER (JJ Asian))))) |ET| 
1  |BT| (NP (NP (PER (NNS surrogates)))(, ,)(PP (VBG including)(NP (PRP$ his)(VBG running)(PER (NN mate))))) |ET| 
-0.55272168778739105832187306077685  |BT| (NP (NP (NP (PER (NNP Gore))(POS 's))(NNS surrogates))(, ,)(PP (VBG including)(NP (PRP$ his)(VBG running)(PER (NN mate))))) |ET| 
1  |BT| (NP (NP (PER (NNS groups)))(PP (IN like)(NP (JJ Jewish)(CC or)(JJ Asian)(PER (NNS voters))))) |ET| 
-0.61861458836473148803491994840442  |BT| (NP (NP (PP (NP (PER (NNS voters)))))(CC or)(NP (JJ young)(PER (NNS blacks)))) |ET| 
1  |BT| (WHNP (NP (PER (DT many)))(WHPP (IN of)(WHNP (PER (WP whom))))) |ET| 
-0.19790422445490873926132735505234  |BT| (SBAR (WHNP (NP (PER (DT many)))(WHPP (IN of)(WHNP (WP whom))))(S (VP (VB buy)(NP (PER (PRP$ their)))))) |ET| 
1  |BT| (VP (PP (NP (PP (NP (ORG (NNS competitors))))))(NP (CD _)(ORG (NN iCAST)))) |ET| 
-0.074197473637519717470922842039727  |BT| (NP (NP (GPE (NNP Morocco)))(, ,)(NP (DT the)(JJ Palestinian)(GPE (NNS territories)))) |ET| 
1  |BT| (S (NP (PER (NNS protesters)))(PRN (, ,)(NP (PER (JJ many))))) |ET| 
-0.25344739050803383184629069546645  |BT| (S (NP (PER (NNS supporters)))(PRN (, ,)(NP (PER (NNP West))))) |ET| 
1  |BT| (NP (NP (GPE (NNS battlegrounds)))(PP (IN as)(NP (NP (NNP Michigan))(CC and)(NP (GPE (NNP Pennsylvania)))))) |ET| 
-0.5326450687060847455356338286947  |BT| (NP (NP (GPE (NNS countries)))(PP (IN like)(NP (NP (NNP Chile))(CC and)(NP (GPE (NNP Indonesia)))))) |ET| 
1  |BT| (NP (NP (PER (NNS sons)))(, ,)(NP (NNP Richard)(CC and)(PER (NNP Douglas)))) |ET| 
-0.18013727380048805137846557045123  |BT| (NP (NP (NP (PER (NNS members)))(PP (IN of)(NP (NNP congress))))(, ,)(NP (NN defense)(PER (NNS lawyers)))) |ET| 
1  |BT| (NP (NP (PER (NNS undergraduates)))(VP (VBG _)(NP (NP (NP (CD 54)(NN percent))(VP (VBG attending)(NP (JJ four-year)(JJ public)(NNS institutions))))(, ,)(NP (NP (CD 27)(NN percent))(PP (IN at)(NP (JJ four-year)(JJ private)(NNS schools))))(, ,)(NP (PER (CD 17)(NN percent)))))) |ET| 
-0.33938000982112992431893871980719  |BT| (NP (NP (NP (PER (CD 54)(NN percent)))(VP (VBG attending)(NP (JJ four-year)(JJ public)(NNS institutions))))(, ,)(NP (NP (CD 27)(NN percent))(PP (IN at)(NP (JJ four-year)(JJ private)(NNS schools))))(, ,)(NP (PER (CD 17)(NN percent)))) |ET| 
1  |BT| (NP (NP (PER (JJS Most)))(PP (IN of)(NP (DT the)(JJ civilian)(PER (NNS victims))))) |ET| 
-0.4336937756202077220990531714051  |BT| (NP (NP (PER (NNS backers)))(PP (IN of)(NP (DT the)(JJ pro-democracy)(PER (NN leader))))) |ET| 
1  |BT| (S (NP (PER (NNS members)))(VP (VBD raised)(NP (QP (IN at)(JJS least)($ $)(CD 100,000)))(PP (IN for)(NP (NP (NNP Bush)(POS 's))(NN campaign)))(: :)(NP (PER (NNP Bill)(NNP DeWitt)(CC and)(NNP Mercer)(NNP Reynolds))))) |ET| 
-0.7036962316221011537464846696821  |BT| (S (NP (ORG (NN committee))(NNS members))(VP (VBD raised)(NP (QP (IN at)(JJS least)($ $)(CD 100,000)))(PP (IN for)(NP (NP (NNP Bush)(POS 's))(NN campaign)))(: :)(NP (PER (NNP Bill)(NNP DeWitt)(CC and)(NNP Mercer)(NNP Reynolds))))) |ET| 
1  |BT| (NP (NP (ORG (DT Some)))(PP (IN of)(NP (PRP$ its)(JJ affiliated)(ORG (NNS stations))))) |ET| 
-0.55290487251637898680201033130288  |BT| (NP (NP (PER (JJS most)))(VP (VBG representing)(NP (ORG (NNS unions))))) |ET| 
1  |BT| (NP (NP (PER (NNS undergraduates)))(VP (VBG _)(NP (NP (NP (CD 54)(NN percent))(VP (VBG attending)(NP (JJ four-year)(JJ public)(NNS institutions))))(, ,)(NP (PER (CD 27)(NN percent)))))) |ET| 
-0.35602686152819157383575543462939  |BT| (NP (NP (PER (NNS undergraduates)))(VP (VBG _)(NP (NP (NP (CD 54)(NN percent))(VP (VBG attending)(NP (JJ four-year)(JJ public)(NNS institutions))))(, ,)(NP (NP (CD 27)(NN percent))(PP (IN at)(NP (JJ four-year)(JJ private)(ORG (NNS schools)))))))) |ET| 
1  |BT| (S (NP (PER (NNS members)))(VP (VBD raised)(NP (QP (IN at)(JJS least)($ $)(CD 100,000)))(PP (IN for)(NP (NP (NNP Bush)(POS 's))(NN campaign)))(: :)(NP (PER (NNP Bill)(NNP DeWitt))))) |ET| 
-0.51837297842040463979884634682094  |BT| (S (NP (PER (NNS members)))(VP (VBD raised)(NP (QP (IN at)(JJS least)($ $)(CD 100,000)))(PP (IN for)(NP (NP (NNP Bush)(POS 's))(NN campaign)))(: :)(NP (NP (NNP Bill)(NNP DeWitt)(CC and)(NNP Mercer)(NNP Reynolds))(, ,)(NP (PER (NNS co-chairs)))))) |ET| 
1  |BT| (NP (NP (ORG (NNS rivals)))(PP (IN like)(NP (NP (NNP Microsoft))(, ,)(NP (NP (NNP AT&AMP))(: ;)(NP (NN T)))(CC and)(NP (ORG (NNP ExciteAtHome)))))) |ET| 
-0.85023251112712960875228418444749  |BT| (S (NP (NP (ORG (NNS rivals)))(PP (IN like)(NP (NP (NNP Microsoft))(, ,)(NP (NP (NNP AT&AMP))(: ;)(NP (NN T)))(CC and)(NP (NNP ExciteAtHome)))))(VP (VBP maintain)(SBAR (S (NP (PRP$ their)(PER (NNS users))))))) |ET| 
1  |BT| (NP (NP (PER (NNS undergraduates)))(VP (VBG _)(NP (PER (CD 54)(NN percent))))) |ET| 
-0.17022826189858886181127672898583  |BT| (S (NP (PER (DT Some)))(VP (VBP have)(VP (VBN accused)(NP (PER (PRP him)))))) |ET| 
1  |BT| (NP (NP (GPE (NNS cities)))(PP (IN like)(NP (NP (NNP Seattle))(, ,)(NP (NP (NNP Des)(NNP Moines))(, ,)(NP (NNP Iowa))(, ,))(CC and)(NP (GPE (NNP Tampa)))))) |ET| 
-0.57210545630056097721194419136737  |BT| (NP (NP (GPE (NNS cities)))(PP (IN like)(NP (NP (NNP Seattle))(, ,)(NP (NP (NNP Des)(NNP Moines))(, ,)(NP (NNP Iowa))(, ,))(CC and)(NP (NP (NNP Tampa))(, ,)(NP (GPE (NNP Fla.))))))) |ET| 
1  |BT| (S (NP (PER (NNS groups)))(VP (VBP _)(SBAR (S (NP (NP (NP (NNS voters))(PP (IN under)(NP (CD 65))))(, ,)(NP (PER (NNS independents)))))))) |ET| 
-0.21020659975867028723683915814036  |BT| (NP (NP (NP (PER (NNS voters)))(PP (IN under)(NP (CD 65))))(, ,)(NP (PER (NNS independents)))) |ET| 
-0.45710110064173692379085878201295  |BT| (NP (NP (GPE (NNS parts)))(PP (IN of)(NP (GPE (NNP Yugoslavia))))) |ET| 
1  |BT| (NP (NP (PP (NP (PER (NNS officers)))))(, ,)(NP (PER (DT some)))) |ET| 
-1  |BT| (NP (NP (PER (NNS independents)))(, ,)(NP (PER (CD one)))) |ET| 
1  |BT| (NP (NP (GPE (CD one)))(PP (IN of)(NP (DT those)(CD four)(GPE (NNS states))))) |ET| 
-0.40158068397094232038213590385567  |BT| (S (PP (NP (PP (NP (PP (NP (NP (GPE (NN city)))(PP (IN of)(NP (NNP Aosta)))))))))(, ,)(NP (PER (NNS villagers)))) |ET| 
1  |BT| (NP (NP (PER (CD one)))(PP (IN of)(PRP$ my)(PER (NNS teammates)))) |ET| 
-0.27354772259946247281447995192138  |BT| (NP (NP (ORG (NN government)))(PP (IN of)(NP (PER (NNS experts))))) |ET| 
1  |BT| (S (PP (NP (PER (NNS donors))))(, ,)(NP (PER (CD 19)))) |ET| 
-0.46382394539660759535948386655946  |BT| (S (NP (PER (CD Two)))(VP (VBD were)(NP (PER (NNS soldiers))))) |ET| 
1  |BT| (NP (NP (ORG (JJ many)))(PP (IN of)(NP (DT the)(JJ other)(CD 85)(ORG (NNS companies))))) |ET| 
-0.31411392865544218722106961649843  |BT| (NP (NP (ORG (DT all)))(PP (IN of)(NP (NP (NNP Time)(NNP Warner)(POS 's))(ORG (NNS advertisers))))) |ET| 
1  |BT| (S (NP (PER (NNS graduates)))(VP (VBP include)(NP (PER (DT those))))) |ET| 
-0.07303184798861495075072980398545  |BT| (PER (PER (NNS coaches))(NNP Gary)(NNP Darnell)) |ET| 
1  |BT| (NP (NP (GPE (NNS cities)))(PP (IN like)(NP (NP (NNP Seattle))(, ,)(NP (GPE (NNP Des)(NNP Moines)))))) |ET| 
-0.88989305488399750299066681691329  |BT| (NP (NP (GPE (NNS cities)))(PP (IN like)(NP (NP (NNP Seattle))(, ,)(NP (NP (NNP Des)(NNP Moines))(, ,)(NP (GPE (NNP Iowa))))))) |ET| 
1  |BT| (NP (NP (PER (CD two)))(PP (IN of)(NP (PER (PRP them))))) |ET| 
-0.58303973187962965241126767068636  |BT| (NP (NP (PER (DT some)))(PP (IN of)(NP (DT the)(GPE (NN country))))) |ET| 
1  |BT| (NP (NP (ORG (NNS newspapers)))(, ,)(PP (VBG including)(NP (ORG (DT The)(NN Courier)(NNP News))))) |ET| 
-0.62083688711174001007009337627096  |BT| (NP (NP (ORG (NNS newspapers)))(, ,)(PP (VBG including)(NP (DT The)(NN Courier)(NNP News)(IN in)(GPE (NNP Elgin))))) |ET| 
-0.34577551895571567719400718488032  |BT| (S (PP (NP (PER (PRP them))))(, ,)(NP (JJ double)(PER (NNS losses)))) |ET| 
1  |BT| (NP (NP (QP (PER (CD Ten))))(PP (IN of)(NP (NP (DT the)(NNP Arab)(NN world)(POS 's))(JJ first)(PER (NNS ladies))))) |ET| 
-0.35125808641555028577485586538387  |BT| (S (NP (PRN (ORG (NP (NNP AP))(-RRB- ]))))(NP (NP (QP (CD _)(CD Ten)))(PP (IN of)(NP (NP (DT the)(NNP Arab)(NN world)(POS 's))(JJ first)(PER (NNS ladies)))))) |ET| 
1  |BT| (SINV (PP (NP (NP (PER (DT those)))(VP (VBN designated))))(VP (VBD were)(NP (JJ former)(NNP NFL)(PER (NNS first-rounders))))) |ET| 
-0.78595925055782100976387027913006  |BT| (SINV (PP (NP (NP (PER (DT those)))(VP (VBN designated))))(VP (VBD were)(NP (JJ former)(ORG (NNP NFL))))) |ET| 
1  |BT| (NP (NP (PER (QP (CD 20))(NN percent)))(PP (IN of)(NP (NNS MLS)(PER (NNS players))))) |ET| 
-1  |BT| (NP (NP (PER (QP (CD 20))(NN percent)))(PP (IN of)(NP (ORG (NNS MLS))))) |ET| 
1  |BT| (NP (NP (GPE (JJ Many)))(PP (IN of)(NP (NP (NNP Germany)(POS 's))(NNS neighbors)))(, ,)(PP (VBG including)(NP (NNP France)(, ,)(NNP Italy)(CC and)(GPE (NNP Greece))))) |ET| 
-0.85304827856825560239428796194261  |BT| (NP (NP (QP (PER (CD Ten))))(PP (IN of)(NP (DT the)(PER (NNP Arab))))) |ET| 
1  |BT| (NP (NP (ORG (NNS rivals)))(PP (IN like)(NP (ORG (NNP Microsoft))))) |ET| 
-0.25690905699432065034670813474804  |BT| (NP (NP (ORG (NNS companies)))(, ,)(NP (ORG (CD 16)))) |ET| 
1  |BT| (NP (NP (QP (PER (CD six))))(PP (IN of)(NP (PER (PRP them))))) |ET| 
-0.5296755193378208659282790904399  |BT| (S (NP (NP (QP (PER (CD six))))(PP (IN of)(NP (PRP them))))(NP (PER (NNPS Jews)))) |ET| 
1  |BT| (S (NP (GPE (NNP Algeria)))(VP (VBD were)(NP (DT the)(JJ only)(NNP Arab)(NNP League)(GPE (NNS countries))))) |ET| 
-0.24179861621514286973422258597566  |BT| (NP (NP (GPE (NNS states)))(CC and)(NP (VBG developing)(GPE (NNS nations)))) |ET| 
1  |BT| (NP (NP (PER (JJ Many)))(PP (IN of)(NP (DT the)(PER (NNS speakers))))) |ET| 
-0.57457570394586143791570975736249  |BT| (NP (NP (PER (JJ Many)))(PP (IN of)(NP (PRP$ his)(ORG (JJ Giant))))) |ET| 
1  |BT| (NP (NP (GPE (NN majority)))(PP (IN of)(NP (DT the)(CD 189)(NNP U.N.)(NN member)(GPE (NNS states))))) |ET| 
-0.44254186579932774936452233305317  |BT| (NP (NP (GPE (NN majority)))(PP (IN of)(NP (DT the)(CD 189)(NNP U.N.)(GPE (NN member))))) |ET| 
1  |BT| (NP (NP (PER (JJ Many)))(PP (IN of)(NP (PRP$ his)(JJ Giant)(PER (NNS teammates))))) |ET| 
-0.32633102061110919045461287169019  |BT| (NP (NP (PER (NNS bodies)))(PP (IN of)(NP (CD six)(PER (NNS people))))) |ET| 
1  |BT| (NP (NP (WEA (NNS clusters)))(PP (IN of)(NP (WEA (CD 368))))) |ET| 
-0.66999373801270556416653789710836  |BT| (NP (NP (WEA (NN missile)))(PP (IN in)(NP (NP (NNS clusters))(PP (IN of)(NP (WEA (CD 368))))))) |ET| 
1  |BT| (S (NP (PER (NNS candidates)))(VP (VBD _)(SBAR (S (PP (VBG including)(NP (PER (DT those)))))))) |ET| 
-0.18060517407178988680271913835895  |BT| (S (NP (PER (NNS candidates)))(VP (VBD _)(SBAR (S (PP (VBG including)(NP (NP (DT those))(PP (IN from)(NP (NP (DT the)(NN country)(POS 's))(CD two)(JJS largest)(JJ political)(ORG (NNS parties)))))))))) |ET| 
1  |BT| (NP (NP (PER (CD one)))(PP (IN of)(NP (NP (DT the)(NN country)(POS 's))(JJ top)(JJ young)(NN coaching)(PER (NNS prospects))))) |ET| 
-0.43734223792022874910401242232183  |BT| (NP (NP (PER (CD one)))(PP (IN of)(PER (PRP$ my)))) |ET| 
1  |BT| (NP (NP (PER (NN audience)))(PP (IN of)(NP (QP (JJR more)(IN than)(PER (CD 2,000)))))) |ET| 
-0.60172532786492405332268162965192  |BT| (NP (NP (PER (NN member)))(PP (IN of)(NP (NP (NNP Pinochet)(POS 's))(JJ legal)(PER (NN team))))) |ET| 
1  |BT| (NP (NP (QP (PER (CD one))))(PP (IN of)(NP (NP (DT the)(NN league)(POS 's))(PER (NNS coaches))))) |ET| 
-0.17960459771916537086156040459173  |BT| (NP (NP (PER (NNS coaches))(NNP Gary)(NNP Darnell))(PP (IN of)(NP (ORG (NNP Western)(NNP Michigan))))) |ET| 
-0.45700616966614782121780535817379  |BT| (S (NP (PER (NNS quarterbacks)))(VP (VBD were)(NP (DT the)(JJ first)(PER (NNS players))))) |ET| 
1  |BT| (NP (NP (WEA (CD three)))(PP (IN of)(NP (DT the)(NNP M-139)(WEA (NNS bomblets))))) |ET| 
-0.35922304049510944690126734712976  |BT| (NP (NP (PER (CD three)))(PP (IN of)(NP (DT the)(ORG (NNP U.N))))) |ET| 
-0.45061698892890067469352288753726  |BT| (S (NP (PER (NNP Owens)))(VP (VBD said)(SBAR (S (NP (NP (QP (IN at)(JJS least)(CD one)))(PP (IN of)(NP (DT the)(WEA (NNS bomblets))))))))) |ET| 
1  |BT| (NP (NP (PER (CD one)))(PP (IN of)(NP (DT the)(VBG leading)(PER (NNS proponents))))) |ET| 
-0.5237224596166016876708226845949  |BT| (NP (NP (PER (CD one)))(PP (IN of)(NP (PRP$ its)(PER (JJ own))))) |ET| 
1  |BT| (NP (NP (GPE (JJ Many)))(PP (IN of)(NP (NP (NNP Germany)(POS 's))(GPE (NNS neighbors))))) |ET| 
-1  |BT| (NP (NP (GPE (JJ Many)))(PP (IN of)(NP (GPE (NNP Germany))))) |ET| 
1  |BT| (NP (NP (PER (CD one)))(PP (IN of)(NP (DT the)(NN conference)(PER (NNS organizers))))) |ET| 
-0.43715379553307059934397216238722  |BT| (NP (NP (PER (CD One)))(PP (IN of)(NP (NP (NN baseball)(POS 's))(JJS biggest)(JJ free-agent)(PER (NNS prizes))))) |ET| 
1  |BT| (NP (NP (PER (CD One)))(PP (IN of)(NP (DT those)(JJ difficult-to-dislodge)(PER (NNS judges))))) |ET| 
-0.65326091360174964872697955797776  |BT| (VP (NP (PER (CD One)))(PP (IN after)(NP (PER (DT another))))) |ET| 
1  |BT| (NP (NP (PER (NN percent)))(PP (IN of)(NP (DT the)(PER (NNS contributors))))) |ET| 
-0.46881225482476007737631107374909  |BT| (NP (NP (PER (NNS campaigners)))(PP (IN for)(NP (NP (NN equality))(PP (IN of)(NP (DT the)(PER (NNS sexes))))))) |ET| 
1  |BT| (NP (NP (PER (CD one)))(PP (IN of)(NP (PRP$ his)(NNP Pirate)(PER (NNS teammates))))) |ET| 
-0.20614759519795300413136374118039  |BT| (NP (ORG (NNP Pirate))(PER (NNS teammates))) |ET| 
1  |BT| (NP (NP (PER (JJ Many)))(PP (IN of)(NP (PER (DT those))))) |ET| 
-0.45046064592128770565082618304587  |BT| (NP (NP (PER (CD one)))(PP (IN of)(NP (PER (PRP$ his))))) |ET| 
-0.467641365117727192401986258119  |BT| (NP (NP (PER (NN bodyguard)))(PP (IN of)(NP (DT the)(PER (JJ secretary-general))))) |ET| 
-0.027841081855973101588652696136705  |BT| (S (NP (NP (PER (NNP Milan)(NNP Milutinovic)))(, ,))(VP (VBZ is)(NP (NP (CD one))(PP (IN of)(NP (NP (NNP Milosevic)(POS 's))(JJS closest)(PER (NNS cronies))))))) |ET| 
1  |BT| (NP (NP (PER (CD one)))(PP (IN of)(NP (DT the)(PER (NNS prisoners))))) |ET| 
-1  |BT| (NP (NP (PER (CD one)))(PP (IN of)(NP (ORG (PRP$ its))))) |ET| 
-0.0058104150094212487012712564649064  |BT| (NP (NP (NP (PER (NNS co-chairs)))(PP (IN of)(NP (NP (DT the)(JJ Ohio-based)(NN investment)(NN firm))(PP (IN of)(NP (NNP Reynolds)(, ,)(NNP DeWitt)(CC and)(NNP Company))))))(: ;)(NP (PER (NNP Brad)(NNP Freeman)))) |ET| 
-0.2621222350155006375338473390002  |BT| (NP (WEA (NNS arms))(PER (NNS inspectors))) |ET| 
-0.36194823374786144754011729673948  |BT| (NP (NP (GPE (NNP Germany))(POS 's))(GPE (NNS neighbors))) |ET| 
1  |BT| (NP (NP (GPE (JJ Many)))(PP (IN of)(NP (NP (NNP Germany)(POS 's))(NNS neighbors)))(, ,)(PP (VBG including)(NP (NNP France)(, ,)(GPE (NNP Italy))))) |ET| 
-0.46923939080774618171076895123406  |BT| (S (S (NP (PER (PRP I)))(VP (VBP _)))(CC or)(S (NP (NP (DT the)(NN rest))(PP (IN of)(NP (DT the)(PER (NNS advisers))))))) |ET| 
-0.26733800207643465540741090080701  |BT| (ORG (NNP Arab)(NNP League)(GPE (NNS countries))) |ET| 
-0.32793545898903309065985922643449  |BT| (VP (PP (NP (PER (NN alternative))))(PP (IN for)(NP (NP (NNP Nader)(POS 's))(PER (NNS supporters))))) |ET| 
-0.23212202594854036696858656796394  |BT| (NP (NP (PER (NN director)))(PP (IN of)(NP (DT the)(FAC (NNS fisheries))))) |ET| 
-0.24327917929039122313383813889232  |BT| (VP (NP (PER (PRP them)))(SBAR (S (NP (DT the)(PER (CD two)))))) |ET| 
-0.37688057084368908888905025378335  |BT| (NP (NP (LOC (NNP Illinois))(NNP Copley)(NNS newspapers))(, ,)(PP (VBG including)(NP (ORG (DT The)(NN Courier)(NNP News))))) |ET| 
-0.65426160448634496091813161910977  |BT| (NP (NP (PER (NNS undergraduates)))(VP (VBG _)(NP (NP (CD 54)(NN percent))(VP (VBG attending)(NP (JJ four-year)(JJ public)(ORG (NNS institutions))))))) |ET| 
-0.05136037937300132194540225327728  |BT| (NP (NP (ORG (JJ many)))(PP (IN of)(NP (DT the)(JJ other)(CD 85)(NNS companies)))(, ,)(SBAR (WHNP (ORG (WDT which))))) |ET| 
-0.38022191902388446926863707631128  |BT| (S (NP (ORG (NN college))(NNS graduates))(VP (VBP include)(NP (PER (DT those))))) |ET| 
-0.27627558992057488218563321424881  |BT| (NP (NP (ORG (NNS clients)))(PP (IN of)(NP (ORG (NP (NN Word))(PP (IN of)(NP (JJ Net))))))) |ET| 
-0.20053164033839143698401130677667  |BT| (NP (PER (NNS teachers))(, ,)(PER (NNS students))) |ET| 
-0.01734404724952380572045029794026  |BT| (VP (NP (PER (PRP him)))(PP (IN of)(S (VP (VBG orchestrating)(NP (NP (DT a)(NN spate))(PP (IN of)(NP (NNS assassinations)(SBAR (WHPP (IN in)(WHNP (WDT which)))(S (NP (NP (DT some))(PP (IN of)(NP (PER (NP (DT the)(NN country)(POS 's))(JJS most)(NX (NX (JJ senior)(NNS politicians))(CC and)(NX (NN underworld)(NNS figures)))))))))))))))) |ET| 
-0.49503463104704570341141334210988  |BT| (NP (PP (NP (GPE (NNS neighbors))))(, ,)(PP (VBG including)(NP (NNP France)(, ,)(NNP Italy)(CC and)(GPE (NNP Greece))))) |ET| 
-0.30328762924757429741973169257108  |BT| (S (NP (NP (WEA (JJ first)))(PP (IN of)(NP (DT the)(JJ grapefruit-size)(NNS bomblets))))(VP (VBD was)(VP (VBN found)(PP (IN by)(S (NP (PER (NNS workers)))))))) |ET| 
-0.035845175063213018107344254303825  |BT| (S (NP (PER (NNS officials)))(VP (VBD agreed)(NP (NNP Friday))(PP (IN on)(NP (DT a)(NN plan)(S (VP (TO to)(VP (VB destroy)(NP (CD six)(`` ``)(NNS bomblets)(, ,)('' ''))(PP (IN at)(NP (NP (JJS least))(VP (ADVP (WEA (RB half))))))))))))) |ET| 
-0.44518796535389404400717694443301  |BT| (S (S (VP (PP (NP (PP (NP (ORG (NNS competitors))))))(NP (CD _)(NN iCAST))))(CC and)(S (NP (NNP Tribal)(NNP Voice))(VP (VBD _)(PP (IN as)(NP (NN evidence)(SBAR (IN that)(S (NP (ORG (NNP AOL)))))))))) |ET| 
-0.2503290319764599480834021960618  |BT| (NP (NP (PER (NNS ladies)))(PP (IN of)(NP (NNP Bahrain)(, ,)(GPE (NNP Comoros))))) |ET| 
-0.28955167245233454087482982686197  |BT| (NP (NP (GPE (NNP Jordan)))(, ,)(NP (NP (NNP Egypt)(POS 's))(NNP Suzanne)(NNP Mubarak))(CC and)(NP (PER (NNS others)))) |ET| 
-0.041337484160399506905037014803383  |BT| (S (NP (PER (NNP Queen))(NNP Rania))(VP (VBD told)(NP (NP (DT an)(NN audience))(PP (IN of)(NP (QP (JJR more)(IN than)(PER (CD 2,000)))))))) |ET| 
-0.30069913249328034110519070054579  |BT| (S (NP (NP (PER (JJ Many)))(PP (IN of)(NP (PRP$ his)(JJ Giant)(NNS teammates))))(ADVP (RB hardly))(VP (VBP talk)(PP (TO to)(NP (PER (PRP him)))))) |ET| 
-0.57951374835676738861423018533969  |BT| (NP (NP (PP (NP (ORG (NNS schools)))))(, ,)(NP (PER (CD 17)(NN percent)))) |ET| 
-0.53887598982113871226573564854334  |BT| (NP (NP (PER (NNS lawyers)))(PP (IN on)(NP (DT both)(PER (NNS sides))))) |ET| 
-0.34432524851713319780088795596384  |BT| (NP (NP (GPE (NN village)))(PP (IN of)(NP (NNP Lanviara)))(, ,)(PP (IN near)(NP (GPE (NNP Korhogo))))) |ET| 
-0.41948826167713426649186203576392  |BT| (SINV (PP (NP (NP (PER (DT those)))(VP (VBN designated))))(VP (VBD were)(NP (JJ former)(NNP NFL)(NNS first-rounders)))(NP (PER (NNP Mike)(NNP Croel)))) |ET| 
-0.16248417500455508699630513547163  |BT| (S (SBAR (S (VP (S (VP (PP (NP (ORG (NNS outlets))))(S (VP (TO to)(VP (VB convey)(NP (NP (DT the)(NN video)(POS 's))(NN message))(PP (TO to)(NP (NNS voters)))))))))))(, ,)(NP (DT the)(NNP Democratic)(NNP Party))(VP (VBZ has)(ADVP (RB also))(VP (VBN been)(VP (VBG running)(NP (NNS commercials))(PP (IN in)(NP (NP (NNS cities))(PP (IN like)(NP (NP (NNP Seattle))(, ,)(NP (NP (NNP Des)(NNP Moines))(, ,)(NP (NNP Iowa))(, ,))(CC and)(NP (GPE (NNP Tampa))))))))))) |ET| 
-0.23284276952062055165981746540638  |BT| (NP (LOC (NN border))(GPE (NNS states))) |ET| 
-0.22737401492960618298866393161006  |BT| (VP (PP (NP (ORG (NNS commissions))))(PP (IN with)(NP (JJ key)(GPE (NNS countries))))) |ET| 
-1  |BT| (NP (NP (PER (CD one)))(PP (IN of)(NP (PER (NNP Milosevic))))) |ET| 
-0.48629305234475994623721817333717  |BT| (S (PP (NP (PP (NP (PER (PRP$ his))(NN campaign)))))(, ,)(NP (QP (JJR fewer)(IN than)(PER (CD 20))))) |ET| 
-0.25046656150347779146159155061468  |BT| (S (NP (NP (WEA (CD three)))(PP (IN of)(NP (DT the)(NNP M-139)(NNS bomblets))))(VP (VBP have)(VP (VBN been)(VP (VBN confirmed)(S (VP (TO to)(VP (VB contain)(NP (WEA (NN sarin)))))))))) |ET| 
-0.36855293949657286223242635969655  |BT| (NP (NP (PER (NN adviser)))(PP (TO to)(NP (NP (NNP Wahid)(POS 's))(PER (NN predecessor))))) |ET| 
-0.066569880574162743069877024026937  |BT| (VP (NP (PER (JJ incumbent)))(, ,)(SBAR (IN while)(S (NP (DT the)(NNP challenger))(VP (VBZ is)(VP (VBN preferred)(PP (IN by)(NP (PER (DT those))))))))) |ET| 
-0.30484387370383214665991999936523  |BT| (NP (NP (PER (NN crowd)))(PP (IN of)(NP (QP (JJR more)(IN than)(CD 1,000))(PER (NNS people))))) |ET| 
-0.37929891476397459282310364869772  |BT| (NP (NP (PER (NNS women)))(, ,)(NP (JJR older)(NNS voters))(, ,)(NP (NNPS Democrats))(, ,)(NP (NNS liberals))(CC and)(NP (ADJP (JJ black)(, ,)(NNP Hispanic)(CC and)(NNP Asian))(PER (NNS voters)))) |ET| 
-0.36861790775652397700312690176361  |BT| (NP (NP (QP (PER (CD Ten))))(PP (IN of)(NP (DT the)(NNP Arab)(GPE (NN world))))) |ET| 
-0.41712039754909990829645494159195  |BT| (NP (NP (PER (NNS surrogates)))(, ,)(PP (VBG including)(NP (NP (PRP$ his)(VBG running)(NN mate))(, ,)(NP (PER (NNP Sen.)(NNP Joseph)(NNP Lieberman)))))) |ET| 
-0.27931850103164657106447066325927  |BT| (NP (NP (PER (DT those)))(ADJP (JJ responsible)(PP (IN for)(NP (NP (DT the)(JJ bloody)(NN destruction))(PP (IN of)(NP (GPE (NNP East)(NNP Timor)))))))) |ET| 
-0.26528698184283644456726847238315  |BT| (NP (NP (PER (NNS investors)))(, ,)(SBAR (WHNP (NP (PER (DT many)))))) |ET| 
-0.31979338334150247957765600403945  |BT| (NP (NP (GPE (NNS countries)))(PP (JJ such)(IN as)(NP (GPE (DT the)(NNP United)(NNPS States))))) |ET| 
-0.22399616631948338074664661689894  |BT| (NP (PER (NNS politicians))(CC and)(JJ many)(JJ leading)(JJ cultural)(PER (NNS figures))) |ET| 
-0.34095707078631337649810006951157  |BT| (S (NP (PER (NNP Koetter)))(VP (VBZ is)(VP (VBN considered)(S (NP (NP (CD one))(PP (IN of)(NP (NP (DT the)(NN country)(POS 's))(JJ top)(JJ young)(NN coaching)(PER (NNS prospects))))))))) |ET| 
-0.36105978558370749320616255317873  |BT| (NP (NP (PER (NNS enthusiasts)))(PP (IN like)(NP (NP (NNP Kurtis)(NNP R.)(NNP King))(, ,)(NP (DT an)(PER (NN analyst)))))) |ET| 
-0.24680176009237947409857838465541  |BT| (NP (NP (ORG (NNS congresses)))(, ,)(RB not)(NP (GPE (JJ Soviet)))) |ET| 
-0.38655160335487104283913595281774  |BT| (VP (NP (PP (NP (PER (NNS people))))(PP (IN of)(NP (JJ Indian)(NN origin))))(, ,)(NP (NP (JJS most))(PP (IN of)(NP (PER (PRP them)))))) |ET| 
-0.055676650964067819771230460901279  |BT| (NP (WEA (NNS guns))(CC or)(WEA (NNS weapons))) |ET| 
-0.23289290380932117785484081196046  |BT| (NP (NP (ORG (NNP Arizona)(NNPS Rattlers)))(PP (IN of)(NP (ORG (DT the)(NN Arena)(NNP Football)(NNP League))))) |ET| 
-0.067957328646748083045281418890227  |BT| (NP (NP (ORG (NNS groups)))(, ,)(NP (JJ political)(NNS parties))(, ,)(NP (NN sport)(ORG (NNS clubs)))) |ET| 
-0.11418941289365255875587479295064  |BT| (NP (NP (VP (PP (NP (ORG (NNP CBS)(NNP News))))))(: :)(NP (PER (CD 11,645)))) |ET| 
-0.30116946598705934823314578352438  |BT| (NP (NP (PER (NNP Guenther)(NNP Beckstein)))(, ,)(NP (NP (CD one))(PP (IN of)(NP (DT the)(VBG leading)(PER (NNS proponents)))))) |ET| 
-0.22456092952466477630224517270108  |BT| (NP (PER (JJ Many))(JJ suspect)(PER (NNS supporters))) |ET| 
-0.29531861217102611805174205983349  |BT| (NP (NP (FAC (NNS polls)))(PRN (-LRB- [)(PP (VBG including)(NP (NP (DT those))(PP (IN in)(NP (GPE (NNP Florida)))))))) |ET| 
-0.091299256157342023598744162882213  |BT| (NP (PER (NNS Actors))(CC and)(PER (NNS singers))) |ET| 
-0.41166131899600300059205437719356  |BT| (NP (NP (QP (PER (CD 2,000))))(PP (IN from)(NP (CD 19)(GPE (NNS countries))))) |ET| 
-0.26163507299542299033845438316348  |BT| (NP (NP (PER (NN majority)))(PP (IN of)(NP (NP (NNS women))(, ,)(NP (JJR older)(NNS voters))(, ,)(NP (NNPS Democrats))(, ,)(NP (PER (NNS liberals)))))) |ET| 
-0.16083217555159645684170754975639  |BT| (NP (ORG (JJ AOL))(ORG (NNS rivals))) |ET| 
-0.47707392316520791375467069883598  |BT| (S (NP (PER (NNS people)))(VP (VBD were)(VP (VBN injured)(, ,)(NP (PER (CD two)))))) |ET| 
-0.23564676947441745569200577392621  |BT| (S (NP (PP (NP (NP (ORG (NNS companies)))(PP (IN like)(NP (NNP Comcast))))))(VP (VBP have)(VP (VBN fallen)(NP (QP (CD 15)(NN percent)(CC or)(JJR more)))(NP (DT this)(NN year))(, ,)(SBAR (IN while)(S (NP (JJ big)(NNS media)(ORG (NNS companies)))))))) |ET| 
-0.21972301035723881823535919011192  |BT| (NP (NP (PER (NNS directors)))(PP (IN of)(NP (JJ mutual)(ORG (NNS funds))))) |ET| 
-0.54917018341318213359159017272759  |BT| (NP (PP (NP (GPE (NNS neighbors))))(, ,)(PP (VBG including)(NP (NNP France)(, ,)(GPE (NNP Italy))))) |ET| 
-0.11746865468006273403034356306307  |BT| (NP (VEH (NN RV))(PER (NNS owners))) |ET| 
-0.29055583139734447728486088635691  |BT| (NP (NP (PER (NNS surrogates)))(, ,)(PP (VBG including)(NP (NP (NP (PRP$ his)(VBG running)(NN mate))(, ,)(NP (NNP Sen.)(NNP Joseph)(NNP Lieberman))(, ,))(CC and)(NP (ORG (DT the)(NNP Democratic)(NNP National)(NNP Committee)))))) |ET| 
-0.33743233460497301656744184583658  |BT| (NP (NP (GPE (NN majority)))(PP (IN of)(NP (DT the)(CD 189)(ORG (NNP U.N.))))) |ET| 
-0.12168482952215486925240384152858  |BT| (NP (NP (ORG (DT The)(NNP News)(NNP Sun)))(CC and)(NP (NP (JJ other)(JJ northern)(NNP Illinois)(NNP Copley)(NNS newspapers))(, ,)(PP (VBG including)(NP (ORG (DT The)(NN Courier)(NNP News)))))) |ET| 
-0.21399322297100079048881582366448  |BT| (S (NP (NP (PER (CD One)))(PP (IN of)(NP (DT those)(JJ difficult-to-dislodge)(NNS judges))))(VP (VBD was)(NP (PER (NNP John)(NNP Marshall))))) |ET| 
-0.23633256203451080690314256571583  |BT| (VP (PP (NP (PER (NN president))))(, ,)(S (VP (VBG serving)(PP (IN on)(NP (NNS commissions)))(PP (IN with)(NP (NP (JJ key)(NNS countries))(, ,)(PP (VBG including)(NP (ORG (CD one))))))))) |ET| 
-0.31770257086163256055044712411473  |BT| (NP (NP (PER (NN winner)))(PP (IN of)(NP (DT the)(JJ disputed)(PER (NN governor))))) |ET| 
-0.11070269138231658700988191412762  |BT| (NP (PER (NNS analysts))(CC and)(NN fund)(PER (NNS managers))) |ET| 
-0.21457317201657111205292949307477  |BT| (NP (NP (PER (NN lieutenant)))(PP (IN of)(NP (PER (NNP Talwinder)(NNP Singh)(NNP Parmar))))) |ET| 
-0.2992473364963137427707806637045  |BT| (NP (NP (ORG (NN army)))(PP (IN with)(NP (WEA (NNS guns))))) |ET| 
-0.34713214123807456523707060114248  |BT| (NP (PER (NNS women))(PER (NNS leaders))) |ET| 
-0.097146182913527404090281436310761  |BT| (NP (NP (ORG (NP (NNP Socialist)(NNPS People)(POS 's))(NNP Party)))(PP (IN of)(NP (NP (NNP Montenegro))(, ,)(NP (DT the)(JJR smaller)(GPE (NNP Yugoslav)))))) |ET| 
-0.11165269608912990750848592824696  |BT| (NP (NP (GPE (NN country))(POS 's))(JJ top)(JJ young)(NN coaching)(PER (NNS prospects))) |ET| 
-0.088649801846385045678289316128939  |BT| (NP (NP (GPE (NNP Jordan)))(, ,)(NP (PER (NP (NNP Egypt)(POS 's))(NNP Suzanne)(NNP Mubarak)))) |ET| 
-0.459120941706972984786006009017  |BT| (S (PP (NP (NP (GPE (NNS countries)))(PP (IN like)(NP (NP (NNP Chile))(CC and)(NP (NNP Indonesia))))))(, ,)(NP (DT the)(JJ old)(PER (NNS autocrats)))) |ET| 
-0.40435614364153960043068991581094  |BT| (NP (NP (PER (NNS majorities)))(PP (IN of)(NP (PER (NNPS Republicans))))) |ET| 
-0.44108804300768150730149841365346  |BT| (NP (NP (PER (NNS undergraduates)))(VP (VBG _)(NP (NP (NP (CD 54)(NN percent))(VP (VBG attending)(NP (JJ four-year)(JJ public)(NNS institutions))))(, ,)(NP (NP (CD 27)(NN percent))(PP (IN at)(NP (JJ four-year)(JJ private)(NNS schools))))(, ,)(NP (NP (CD 17)(NN percent))(PP (IN at)(NP (JJ two-year)(NN community)(ORG (NNS colleges)))))))) |ET| 
-0.083136287130329625250091396537755  |BT| (S (SBAR (S (VP (S (VP (NP (NP (PER (NNP Beatles))(CD 25)(NN percent))(PP (IN of)(NP (DT the)(JJ net)(NN income)))))))))(, ,)(NP (NP (DT the)(NN band)(POS 's))(PER (NN manager)))) |ET| 
-0.22302894914954862759515208381345  |BT| (NP (NP (PER (NNS sons)))(, ,)(NP (NP (NNP Richard)(CC and)(NNP Douglas))(: ;)(NP (DT a)(PER (NN sister))))) |ET| 
-0.17918793125722232151275647993316  |BT| (S (NP (PER (NNS members)))(VP (VBD raised)(NP (QP (IN at)(JJS least)($ $)(CD 100,000)))(PP (IN for)(NP (NP (NNP Bush)(POS 's))(NN campaign)))(: :)(NP (NP (NNP Bill)(NNP DeWitt)(CC and)(NNP Mercer)(NNP Reynolds))(, ,)(NP (NP (NNS co-chairs))(PP (IN of)(NP (NP (DT the)(JJ Ohio-based)(NN investment)(NN firm))(PP (IN of)(NP (NNP Reynolds)(, ,)(NNP DeWitt)(CC and)(NNP Company))))))(: ;)(NP (NP (NNP Brad)(NNP Freeman))(, ,)(NP (DT a)(NNP California)(NN investor)))(: ;)(CC and)(NP (GPE (NNP Florida)))))) |ET| 
-0.37234012037200292510874533036258  |BT| (NP (NP (GPE (NNS hamlets)))(, ,)(CC or)(NP (GPE (NNS colonias)))) |ET| 
-0.042205157691492023452894954971271  |BT| (NP (NP (LOC (NN area)))(SBAR (WHADVP (WRB where))(S (NP (DT the)(WEA (NNS bomblets)))))) |ET| 
-0.4956162554422319233005111982493  |BT| (S (NP (NP (GPE (NNP Egypt)))(PRN (-LRB- [)(NP (NNP AP))(-RRB- ])))(NP (NP (QP (CD _)(CD Ten)))(PP (IN of)(NP (NP (DT the)(NNP Arab)(NN world)(POS 's))(JJ first)(PER (NNS ladies)))))) |ET| 
-0.39275895180138020723603631267906  |BT| (NP (NP (GPE (NNS countries)))(PP (IN in)(NP (DT the)(JJ Arab)(GPE (NN world))))) |ET| 
-0.14116317768492936401969473081408  |BT| (S (NP (ORG (NNS companies)))(VP (VBP fill)(NP (NP (DT the)(NNS holes))(PP (IN of)(NP (DT the)(JJ other)(ORG (CD one))))))) |ET| 
-0.25717851349594822440991492840112  |BT| (NP (NP (ORG (NNS leagues)))(CC and)(NP (PER (NNS players)))) |ET| 
-0.28452659147330044975277019148052  |BT| (NP (NP (GPE (NNS cities)))(PP (IN in)(NP (CD 20)(ADJP (RB hotly)(VBN contested))(GPE (NNS states))))) |ET| 
-0.28143819907574185723575510564842  |BT| (S (NP (NP (NP (PER (CD one)))(PP (IN of)(NP (DT the)(NN conference)(NNS organizers))))(, ,))(VP (VBD said)(SBAR (S (NP (PER (PRP they))))))) |ET| 
-0.16642760550236609939922516332445  |BT| (NP (NP (PER (JJ Milosevic))(NNS cronies))(PP (VBG including)(NP (GPE (NNP Serbian))))) |ET| 
-0.17562168597153043902991953473247  |BT| (S (NP (PER (JJ Triple)(NNP H)))(VP (VBD were)(RB n't)(PP (IN among)(NP (DT the)(PER (NNS selections)))))) |ET| 
-0.16263363507348882475156415239326  |BT| (NP (NP (PER (NNS Representatives)))(PP (IN of)(NP (ORG (NP (NNP Rally))(PP (IN of)(NP (DT the)(NNPS Republicans))))))) |ET| 
-0.13521149455924680315987984613457  |BT| (S (NP (PER (NNS members)))(VP (VBD raised)(NP (QP (IN at)(JJS least)($ $)(CD 100,000)))(PP (IN for)(NP (NP (NNP Bush)(POS 's))(NN campaign)))(: :)(NP (NP (NNP Bill)(NNP DeWitt)(CC and)(NNP Mercer)(NNP Reynolds))(, ,)(NP (NP (NNS co-chairs))(PP (IN of)(NP (NP (DT the)(JJ Ohio-based)(NN investment)(NN firm))(PP (IN of)(NP (NNP Reynolds)(, ,)(NNP DeWitt)(CC and)(NNP Company))))))(: ;)(NP (NP (NNP Brad)(NNP Freeman))(, ,)(NP (DT a)(NNP California)(PER (NN investor))))))) |ET| 
-0.16440093613580608611357547488296  |BT| (NP (NP (LOC (NN region)))(PP (IN of)(NP (JJ northern)(LOC (NNP Italy))))) |ET| 
-0.28611457385000949038555972947506  |BT| (NP (GPE (NN member))(GPE (NNS states))) |ET| 
-0.19029141389986747867624217178673  |BT| (NP (NP (PER (NN resident)))(PP (IN of)(NP (GPE (DT the)(JJ Clear)(NNP Lake))))) |ET| 
-0.37648663865319131893727444548858  |BT| (NP (NP (PER (DT those)))(SBAR (WHNP (PER (WP who))))) |ET| 
-0.22258926347763799413748131428292  |BT| (S (NP (PER (NNS Moderates)))(VP (VBP have)(VP (VBN won)(NP (NP (NN control))(PP (IN of)(NP (NP (NNP Vancouver)(POS 's))(JJS largest)(JJ Sikh)(ORG (NNS temples)))))))) |ET| 
-0.14897253405041854801282852349686  |BT| (NP (NP (PP (NP (ORG (NNS colleges)))))(CC and)(NP (PER (CD 1)(NN percent)))) |ET| 
-0.16574248444626746290531116301281  |BT| (NP (NP (PER (NNS Neighbors)))(PP (IN of)(NP (CD one)(JJ available)(FAC (NN residence))))) |ET| 
-0.22002572602560582781805464946956  |BT| (NP (NP (PER (NNS investors)))(, ,)(SBAR (WHNP (NP (DT many))(WHPP (IN of)(WHNP (PER (WP whom))))))) |ET| 
-0.36791244737185707647242338680371  |BT| (NP (NP (PER (NN director)))(PP (IN of)(NP (DT the)(PER (JJ gay))))) |ET| 
-0.21788897511881755164608875929844  |BT| (PP (PP (NP (NP (PER (NNS independents)))(PRN (, ,)(ADVP (RB particularly))(NP (JJ liberal)(NNS ones))(, ,))))(CC and)(PP (IN among)(NP (JJ young)(PER (NNS men))))) |ET| 
-0.15314710083336621759819706767303  |BT| (NP (NP (PER (NNP Rania)))(PP (IN of)(NP (NP (NNP Jordan))(, ,)(NP (PER (NP (NNP Egypt)(POS 's))(NNP Suzanne)(NNP Mubarak)))))) |ET| 
-0.18237705664492676049803776550107  |BT| (VP (VP (NP (PER (DT all))))(CC but)(`` ``)(VP (VBD uncommitted)(NP (PER (NNS voters))))) |ET| 
-0.29410080546603112328085671833833  |BT| (NP (NP (PER (NN member)))(PP (IN of)(NP (ORG (DT the)(NNP Green)(NNP Party))))) |ET| 
-0.26038628028560012461767314562167  |BT| (S (NP (PER (NNS Police)))(VP (VBN separated)(NP (PER (PRP them))))) |ET| 
-0.12919629929591086581197600935411  |BT| (S (SBAR (S (NP (NP (GPE (CD one)))(PP (IN of)(NP (DT those)(CD four)(NNS states))))(VP (MD could)(VP (VB wind)(PRT (RP up))(S (VP (VBG providing)(NP (NP (DT the)(NN key))(PP (TO to)(NP (DT a)(NNP Bush)(NN victory))))))))))(, ,)(NP (NN none))(VP (VBP have)(NP (ADJP (RB as)(JJ many))(JJ electoral)(NNS votes))(PP (IN as)(NP (NP (JJ such)(NNS battlegrounds))(PP (IN as)(NP (NP (NNP Michigan))(CC and)(NP (GPE (NNP Pennsylvania))))))))) |ET| 
-0.060451318655747154906521245720796  |BT| (NP (NP (ORG (NN league))(POS 's))(PER (NNS coaches))) |ET| 
-0.53235632089724649329554040377843  |BT| (GPE (NP (NP (NNP Yugoslavia))(CC and)(NP (NNP Serbia)))(VP (VBP have)(VP (VBN joined)(NP (NP (DT the)(NN family))(PP (IN of)(NP (JJ democratic)(GPE (NNS nations)))))))) |ET| 
-0.15674102698232750263684920355445  |BT| (S (NP (PER (NNS demonstrators)))(VP (VBD shouted)(PP (IN at)(NP (PER (CD one)))))) |ET| 
-0.16462248743721397126194005977595  |BT| (NP (NP (GPE (NNP Seattle)))(, ,)(NP (GPE (NNP Des)(NNP Moines)))) |ET| 
-0.31691990265117375713543879101053  |BT| (S (NP (PER (NNS Prosecutors)))(VP (VBP say)(SBAR (S (NP (DT the)(CD two)(PER (NNS defendants))))))) |ET| 
-0.19694429793607359790996724768775  |BT| (NP (NP (PER (NNS Critics)))(PP (IN of)(NP (NP (NNP Indonesia)(POS 's))(JJ legal)(GPE (NN system))))) |ET| 
-0.33234714106947466083497033650929  |BT| (NP (NP (PER (NNP Ali)(NNP Jan)))(, ,)(NP (NP (CD one))(PP (IN of)(NP (DT the)(PER (NNS prisoners)))))) |ET| 
-0.41145862187887471961289520550054  |BT| (NP (NP (NP (PER (CD 54)(NN percent)))(VP (VBG attending)(NP (JJ four-year)(JJ public)(NNS institutions))))(, ,)(NP (PER (CD 27)(NN percent)))) |ET| 
-0.041072550925905088048395441546745  |BT| (NP (NP (NP (PER (NNS members)))(PP (IN of)(NP (NNP congress))))(, ,)(NP (NN defense)(NNS lawyers))(, ,)(NP (VBN retired)(NN army)(PER (NNS generals)))) |ET| 
-0.13724087637154425145524783147266  |BT| (S (NP (SBAR (WHNP (PER (WP who)))(S (VP (VBD received)(NP (NP (CD 2)(NN percent))(PP (IN of)(NP (DT the)(NN vote)))))))(, ,))(VP (VBD did)(ADVP (RBS best))(PP (IN among)(NP (NP (NNS independents))(PRN (, ,)(ADVP (RB particularly))(NP (JJ liberal)(PER (NNS ones)))))))) |ET| 
-0.29492736098783889353569520608289  |BT| (NP (NP (GPE (NNP Saudi)(NNP Arabia)))(, ,)(NP (NNP Qatar))(CC and)(NP (GPE (NNP Algeria)))) |ET| 
-0.20614698262996911104494301980594  |BT| (NP (NP (PER (NNS undergraduates)))(VP (VBG _)(NP (NP (NP (CD 54)(NN percent))(VP (VBG attending)(NP (JJ four-year)(JJ public)(NNS institutions))))(, ,)(NP (NP (CD 27)(NN percent))(PP (IN at)(NP (JJ four-year)(JJ private)(NNS schools))))(, ,)(NP (NP (CD 17)(NN percent))(PP (IN at)(NP (JJ two-year)(NN community)(NNS colleges))))(CC and)(NP (NP (CD 1)(NN percent))(PP (IN at)(NP (JJ private)(JJ two-year)(ORG (NNS schools)))))))) |ET| 
-0.32867816314870978988693650535424  |BT| (NP (NP (ORG (NNS newspapers)))(, ,)(PP (VBG including)(NP (NP (DT The)(NN Courier)(NNP News)(IN in)(NNP Elgin))(, ,)(NP (NP (DT The)(NNP Beacon)(NNP News))(PP (IN in)(NP (GPE (NNP Aurora)))))))) |ET| 
-0.20643871129838212152840526414366  |BT| (S (NP (SBAR (S (VP (NP (PER (NNS clients)))(S (VP (TO to)(VP (VB buy)(NP (DT the)(NN stock)))))))))(, ,)(PP (IN like)(NP (PER (NNP Charles)(NNP R.)(NNP Wolf))))) |ET| 
-0.25645888007144873599330026081589  |BT| (NP (NP (ORG (NNP Star-Ledger)))(PP (IN of)(NP (NP (NNP Newark))(, ,)(NP (ORG (NNP Gannett)(NNP Newspapers)))))) |ET| 
-0.29762809341011853270231313217664  |BT| (NP (NP (PER (NNS counterparts)))(PP (IN in)(NP (NP (ADJP (RBR more)(JJ liberal))(NNS countries))(, ,)(PP (VBG including)(NP (NNP Jordan)(, ,)(GPE (NNP Egypt))))))) |ET| 
-0.21494867031933082013317459768587  |BT| (NP (NP (PER (NN base)))(PP (IN of)(NP (NN online)(PER (NNS users))))) |ET| 
-0.31934199156708931166548381952452  |BT| (S (NP (NP (PP (NP (VEH (NNS cars)))))(, ,))(VP (VBZ is)(NP (NP (DT the)(JJ first)(NN member))(PP (IN of)(NP (NP (NNP Suharto)(POS 's))(PER (NN family))))))) |ET| 
-0.12184924830795607064715113665443  |BT| (VP (VP (NP (PER (NNS members)))(ADVP (RB underground)))(CC and)(VP (VB make)(NP (PER (PRP them))))) |ET| 
-0.55486195144460470629610426840372  |BT| (NP (NP (NP (PER (NNS voters)))(PP (IN under)(NP (CD 65))))(, ,)(NP (NNS independents))(, ,)(NP (PER (NNS voters)))) |ET| 
-0.16666158849096168736991785408463  |BT| (NP (PER (NNS children))(CC and)(WEA (NNS weapons))) |ET| 
-0.28242166543467583927906616736436  |BT| (NP (NP (PER (NN son)))(PP (IN of)(NP (PER (JJ ex-dictator))))) |ET| 
-0.11325344849222082621587048834044  |BT| (S (SBAR (S (NP (PP (NP (PER (NNS people)))))(VP (VBP are)(ADJP (VBN surveyed)))))(, ,)(NP (NN exit)(NNS polls))(VP (MD can)(VP (VB help)(S (VP (VB measure)(NP (NP (DT the)(NNS preferences))(PP (IN of)(NP (NP (NNS groups))(PP (IN like)(NP (JJ Jewish)(CC or)(JJ Asian)(PER (NNS voters)))))))))))) |ET| 
-0.10389134088416691892309273725914  |BT| (NP (NP (PER (NN member)))(PP (IN of)(NP (DT the)(NN school)(NN board)))(ADVP (GPE (RB here)))) |ET| 
-0.16253268831835282481890203598596  |BT| (S (NP (PER (NNS members)))(VP (VBD raised)(NP (QP (IN at)(JJS least)($ $)(CD 100,000)))(PP (IN for)(NP (NP (NNP Bush)(POS 's))(ORG (NN campaign)))))) |ET| 
-0.22285453855432824088467214096454  |BT| (NP (NP (PER (NN membership)))(PP (IN of)(NP (CD 1.8)(PER (CD million))))) |ET| 
-0.094114716648333374138246654183604  |BT| (NP (VEH (NN helicopter))(WEA (NNS missiles))) |ET| 
-0.087435213413959989026125185773708  |BT| (NP (NP (PER (DT those)))(PP (IN from)(NP (DT the)(GPE (NN country))))) |ET| 
-0.049599577126324741194185463655231  |BT| (S (S (VP (PP (NP (NP (PER (NNS people)))(PP (IN of)(NP (NNP Serbia)))(SBAR (WHNP (WP who))(S (VP (VBP have)(VP (VBN suffered)(PP (IN under)(NP (NP (DT the)(NN regime)(POS 's))(JJ brutal)(NNS policies)))))))))))(, ,)('' '')(NP (DT the)(PER (NN president)))) |ET| 
-0.10538886497131741415422823138215  |BT| (S (NP (PER (NNP Haverty)))(, ,)(PP (IN like)(NP (JJ many)(JJ other)(NNP Time)(NNP Warner)(PER (NNS shareholders))))) |ET| 
-0.14410499378772609335719323553349  |BT| (VP (NP (NP (PER (NN audience)))(PP (IN of)(NP (NNS pilgrims))))(PP (IN at)(NP (FAC (NNP St.)(NNP Peter)(POS 's))))) |ET| 
-0.079582766787159586741040584456641  |BT| (NP (GPE (NNP Scottish))(PER (NNS judges))) |ET| 
-0.17812751583578087521964050665702  |BT| (NP (NP (PER (NN official)))(PP (IN of)(NP (GPE (DT the)(JJ Palestinian)(NN authority))))) |ET| 
-0.12580184183680903631241676521313  |BT| (S (S (VP (NP (PP (NP (ORG (NNS companies)))))))(, ,)(NP (ORG (NNP Onvia.com)))) |ET| 
-0.16253572402306151745143836251373  |BT| (S (NP (NP (PER (JJS Most)))(PP (IN of)(NP (DT the)(JJ civilian)(NNS victims))))(VP (VBD were)(VP (VBN shot)(PP (IN by)(NP (NN security)(PER (NNS forces))))))) |ET| 
-0.12148923541283696003745262714801  |BT| (NP (PER (NN labor))(ORG (NNS groups))) |ET| 
-0.098232435523745692540487084443157  |BT| (NP (NP (ORG (NNP America)(NNP Online)(POS 's)))(PER (NN chairman))) |ET| 
-0.11385858528251863175384528403811  |BT| (VP (NP (PP (NP (GPE (JJ Indian))(NN origin))))(, ,)(NP (NP (JJS most))(PP (IN of)(NP (PER (PRP them)))))) |ET| 
-0.10997995978509775283349370056385  |BT| (S (NP (PER (NNS audiences)))(ADVP (RB also))(VP (VBD gave)(NP (DT the)(NN vice)(JJ presidential)(PER (NNS candidates))))) |ET| 
-0.11780743955675362921731164078665  |BT| (S (NP (PER (NNS players)))(VP (VBD argued)(SBAR (IN that)(S (NP (NP (QP (RB only)(CD 20))(NN percent))(PP (IN of)(NP (NNS MLS)(PER (NNS players))))))))) |ET| 
-0.17917022818502648107141794753261  |BT| (NP (NP (PER (NN head)))(PP (IN of)(NP (DT an)(JJ influential)(NN group)))(PP (IN of)(NP (PER (NNS economists))))) |ET| 
-0.13572033578625739003165051599353  |BT| (VP (NP (NP (ORG (NNS newspapers)))(, ,)(PP (VBG including)(NP (NP (DT The)(NN Courier)(NNP News)(IN in)(NNP Elgin))(, ,)(NP (NP (DT The)(NNP Beacon)(NNP News))(PP (IN in)(NP (NNP Aurora))))(CC and)(NP (NNP The)(NNP Herald)(NNP News)))))(PP (IN in)(NP (GPE (NNP Joliet))))) |ET| 
-0.26904775273097331078631100353959  |BT| (NP (NP (ORG (NN government)))(PP (IN of)(NP (NP (JJ Milosevic)(NNS cronies))(PP (VBG including)(NP (GPE (NNP Serbian))))))) |ET| 
-0.10381002052151344638986074642162  |BT| (NP (NP (PER (NN coach)))(PP (IN of)(NP (DT the)(NNPS Patriots)(CC and)(ORG (NNPS Colts))))) |ET| 
-0.2857206423521003735288559255423  |BT| (NP (NP (GPE (NN family)))(PP (IN of)(NP (JJ democratic)(GPE (NNS nations))))) |ET| 
-0.064217216258890305602413661745231  |BT| (S (NP (PER (NNP George)(NNP W.)(NNP Bush)))(PP (IN as)(NP (PRP$ his)(NN guest)))(, ,)(NP (NNP Letterman))(VP (VBD quizzed)(NP (DT an)(NN audience)(PER (NN member))))) |ET| 
-0.18458404217297036398193199602247  |BT| (S (NP (NP (QP (PER (CD Ten))))(PP (IN of)(NP (NP (DT the)(NNP Arab)(NN world)(POS 's))(JJ first)(NNS ladies))))(VP (VBD joined)(NP (PER (NNS activists))))) |ET| 
-0.38285242669175900687150715384632  |BT| (S (NP (NP (NP (PER (NN president)))(PP (IN of)(NP (NNP Serbia))))(, ,)(NP (NNP Milan)(NNP Milutinovic))(, ,))(VP (VBZ is)(NP (NP (CD one))(PP (IN of)(NP (NP (NNP Milosevic)(POS 's))(JJS closest)(PER (NNS cronies))))))) |ET| 
-0.16847231533114626067515473550884  |BT| (NP (NP (GPE (NNP Michigan)))(CC and)(NP (GPE (NNP Pennsylvania)))) |ET| 
-0.10274331077109510879097342694877  |BT| (NP (NP (LOC (NN suburb)))(PP (IN of)(NP (LOC (NNP Highland)(NNP Park))))) |ET| 
-0.11555868524982805534140339887017  |BT| (S (NP (PER (NNS members)))(VP (VBD raised)(NP (QP (IN at)(JJS least)($ $)(CD 100,000)))(PP (IN for)(NP (NP (NNP Bush)(POS 's))(NN campaign)))(: :)(NP (NP (NNP Bill)(NNP DeWitt)(CC and)(NNP Mercer)(NNP Reynolds))(, ,)(NP (NP (NNS co-chairs))(PP (IN of)(NP (NP (DT the)(JJ Ohio-based)(NN investment)(NN firm))(PP (IN of)(NP (NNP Reynolds)(, ,)(NNP DeWitt)(CC and)(NNP Company))))))(: ;)(NP (NP (NNP Brad)(NNP Freeman))(, ,)(NP (DT a)(NNP California)(NN investor)))(: ;)(CC and)(NP (NNP Florida)(PER (NN developer)))))) |ET| 
-0.174856228671959018639014971086  |BT| (VP (PP (NP (NP (GPE (NNS cities)))(PP (IN like)(NP (NP (NNP Seattle))(, ,)(NP (NP (NNP Des)(NNP Moines))(, ,)(NP (NNP Iowa))(, ,))(CC and)(NP (NP (NNP Tampa))(, ,)(NP (NNP Fla.))(, ,))))))(S (VP (TO to)(VP (VB attack)(NP (DT the)(PER (NN governor))))))) |ET| 
-0.50284851421634513268799082652549  |BT| (NP (NP (PP (NP (NP (NP (PER (NNS groups)))(PP (IN like)(NP (JJ Jewish)(CC or)(JJ Asian)(NNS voters))))(CC or)(NP (JJ young)(NNS blacks)))))(CC or)(NP (NP (JJ liberal)(NNPS Republicans))(SBAR (WHNP (WP$ whose)(NP (NN portion))(PP (IN of)(NP (DT the)(VBG voting)(PER (NN population)))))))) |ET| 
-0.4046346995620964115403239702573  |BT| (NP (NP (PER (DT those)))(PP (IN from)(NP (NP (DT the)(NN country)(POS 's))(CD two)(JJS largest)(JJ political)(ORG (NNS parties))))) |ET| 
-0.065288872790605800844332406995818  |BT| (S (NP (PER (NNS coaches)))(VP (VBP tell)(NP (PER (PRP me))))) |ET| 
-0.094258551719696118120772609927371  |BT| (NP (NP (PER (NN president)))(PP (IN of)(NP (NP (NNP Tabasco)(POS 's))(JJ electoral)(ORG (NN institute))))) |ET| 
-0.12710921745138364924443408199295  |BT| (NP (NP (GPE (NNS states)))(, ,)(ADVP (RB possibly))(NP (RB even)(GPE (NNP Florida)))) |ET| 
-0.093757157195657248038855868799146  |BT| (NP (QP (GPE (CD EU)))(GPE (NNS nations))) |ET| 
-0.13247474951840701451466486560093  |BT| (NP (NP (FAC (NN place)))(PP (IN of)(NP (DT the)(JJ biblical)(PER (NN patriarch))))) |ET| 
-0.27057886077265669300118133833166  |BT| (NP (NP (NP (PER (CD 54)(NN percent)))(VP (VBG attending)(NP (JJ four-year)(JJ public)(NNS institutions))))(, ,)(NP (NP (CD 27)(NN percent))(PP (IN at)(NP (JJ four-year)(JJ private)(NNS schools))))(, ,)(NP (NP (CD 17)(NN percent))(PP (IN at)(NP (JJ two-year)(NN community)(NNS colleges))))(CC and)(NP (PER (CD 1)(NN percent)))) |ET| 
-0.078974840696003481554932079689024  |BT| (S (NP (PER (NNS officials)))(VP (VBD disagreed)(SBAR (IN that)(S (NP (NP (NNP AOL)(POS 's))(NN market)(NN share))(VP (VBD was)(VP (VBG keeping)(PRT (RP out))(NP (ORG (NNS competitors))))))))) |ET| 
-0.06181758075718187667169090104835  |BT| (NP (NP (PER (NN clone)))(PP (IN of)(NP (PER (NNP G.W.)(NNP Bush))))) |ET| 
-0.14372549743455115267565247449966  |BT| (S (NP (PER (NNS groups)))(VP (VBP _)(SBAR (S (NP (NP (NP (NNS voters))(PP (IN under)(NP (CD 65))))(, ,)(NP (NNS independents))(, ,)(NP (NP (NNS voters))(PP (IN from)(NP (NP (DT the)(NNP Midwest))(CC and)(NP (DT the)(NNP West)))))(CC and)(NP (NNS suburbanites)))(VP (VBP _)(VP (VBN divided)(NP (PRP$ their)(NNS votes))(ADVP (RB almost)(RB evenly))(PP (IN between)(NP (DT the)(CD two)(JJ major)(PER (NNS candidates)))))))))) |ET| 
-0.080529432222866015322892963013146  |BT| (LOC (NNP Middle)(NNP Eastern)(ORG (NNS companies))) |ET| 
-0.069422886638315792207087895349105  |BT| (NP (NP (VP (NP (ORG (NNS institutions)))))(, ,)(NP (PER (CD 27)(NN percent)))) |ET| 
-0.10163545119805923733213859350144  |BT| (S (S (VP (PP (NP (GPE (NNP Iowa))))))(, ,)(CC and)(S (SBAR (IN while)(S (NP (NP (DT any)(CD one))(PP (IN of)(NP (DT those)(CD four)(GPE (NNS states))))))))) |ET| 
-0.44662091746422777349678767677688  |BT| (NP (NP (PER (CD one)))(PP (IN of)(NP (PRP$ his)(ORG (NNP Pirate))))) |ET| 
-0.07667274978363614046372731536394  |BT| (S (NP (PER (NN somebody)))(VP (MD could)(VP (VB have)(VP (VBN given)(NP (DT the)(PER (NNS candidates))))))) |ET| 
-0.060773672036321328693286858424472  |BT| (VP (PP (NP (ORG (NNPS Securities)(CC and)(NNP Exchange)(NNP Commission))))(NP (PER (JJ official)))) |ET| 
-0.24030925207462469628261203524744  |BT| (NP (NP (WEA (NN missile)))(PP (IN in)(NP (WEA (NNS clusters))))) |ET| 
-0.11219988545827336290372500116064  |BT| (NP (NP (GPE (PRP$ its))(NN position))(PP (IN as)(NP (NP (DT the)(NN EU)(POS 's))(JJS biggest)(GPE (NN nation))))) |ET| 
-0.086573840576792182588405921705998  |BT| (S (NP (PER (CD four)))(VP (VBD climbed)(PP (IN out)(PP (IN of)(NP (DT the)(VEH (NN wreckage))))))) |ET| 
-0.29217769047516861657953768371954  |BT| (NP (NP (PER (NNS proxies)))(SBAR (WHNP (WP who))(S (ADVP (RB still))(VP (VBP control)(NP (NP (NP (NNP Serbia)(POS 's))(NN police))(VP (VBG _)(NP (NP (NNP Yugoslavia)(POS 's))(NN reintegration))(PP (IN into)(NP (DT the)(LOC (NN world)))))))))) |ET| 
-0.089689588072204395885478334093932  |BT| (NP (NP (PER (NNS citizens))(POS '))(ORG (NNS groups))) |ET| 
-0.11260472180019953647445163369412  |BT| (NP (NP (PER (NNS representatives)))(PP (IN of)(NP (JJ several)(JJ progressive)(ORG (NNS organizations))))) |ET| 
-0.071167587758316760981891491155693  |BT| (NP (NP (ORG (NNS parties)))(VP (VBG _)(NP (ORG (DT the)(NNPS Republicans)(CC and)(NNP German)(NNPS Peoples)(NNP Union))))) |ET| 
-0.081400627517924872833532390359323  |BT| (NP (NP (PER (NNS victims)))(CC or)(NP (JJ other)(PER (NNS people)))) |ET| 
-0.13217093792509726490891353023471  |BT| (NP (NP (ORG (NN association)))(PP (IN of)(NP (VBN retired)(NN army)(PER (NNS generals))))) |ET| 
-0.052722373131421071401625511043676  |BT| (S (NP (PER (NNS Others)))(PRN (, ,)(S (NP (PER (PRP he)))))) |ET| 
-0.073675718241218976500839232812723  |BT| (VP (NP (GPE (JJ Soviet))(NN anthem))(PP (IN as)(NP (NP (NNP Russia)(POS 's))(JJ national)(JJ hymn)(NN _)))(NP (NP (DT a)(NN move))(VP (VBN praised)(PP (IN by)(NP (PER (DT some))))))) |ET| 
-0.19024635426383945668860064870387  |BT| (S (SBAR (S (NP (PP (NP (PER (NNS people)))))(VP (VBP are)(ADJP (VBN surveyed)))))(, ,)(NP (NN exit)(NNS polls))(VP (MD can)(VP (VB help)(S (VP (VB measure)(NP (NP (DT the)(NNS preferences))(PP (IN of)(NP (NP (NP (NNS groups))(PP (IN like)(NP (JJ Jewish)(CC or)(JJ Asian)(NNS voters))))(CC or)(NP (JJ young)(PER (NNS blacks))))))))))) |ET| 
-0.086827496281538740774408324796241  |BT| (NP (NP (PER (NN audience)))(VP (VBG _)(NP (DT this)(JJ troubled)(PER (NN fellow))))) |ET| 
-0.36474938351290964178019748942461  |BT| (NP (ORG (JJ Giant))(PER (NNS teammates))) |ET| 
-0.089759641521806973751829161756177  |BT| (S (NP (PER (NNS supporters)))(VP (VBP say)(SBAR (IN that)(S (PP (IN despite)(NP (NP (PRP$ his)(NN lack))(PP (IN of)(NP (JJ direct)(JJ foreign)(NN policy)(NN experience)))))(, ,)(NP (NP (PRP$ his)(NN record))(PP (IN as)(NP (NNP Texas)(NN governor)))(, ,)(PP (VBG including)(NP (NP (NNS dealings))(PP (IN with)(NP (GPE (NN neighbor))))))))))) |ET| 
-0.092227465446584860897516477962199  |BT| (S (NP (PER (NNS groups)))(VP (VBD told)(NP (DT the)(ORG (NNS campaigns))))) |ET| 
-0.06617350092114478166127611302727  |BT| (NP (NP (ORG (NNS stations)))(PP (IN in)(NP (GPE (NNP Oklahoma))))) |ET| 
-0.14065067865040256633868409608112  |BT| (VP (NP (PER (PRP him)))(SBAR (S (NP (PDT all)(DT the)(NN production)(WEA (NNS bomblets)))))) |ET| 
-0.045794223484783319610968987944943  |BT| (NP (NP (ORG (NNP Microsoft)))(, ,)(NP (NP (NNP AT&AMP))(: ;)(NP (NN T)))(CC and)(NP (ORG (NNP ExciteAtHome)))) |ET| 
-0.30132961230329913249192941293586  |BT| (NP (NP (ORG (NNP Copley))(NNS newspapers))(, ,)(PP (VBG including)(NP (NP (DT The)(NN Courier)(NNP News)(IN in)(NNP Elgin))(, ,)(NP (NP (DT The)(NNP Beacon)(NNP News))(PP (IN in)(NP (NNP Aurora))))(CC and)(NP (ORG (NNP The)(NNP Herald)(NNP News)))))) |ET| 
-0.58114817977420185624026771620265  |BT| (NP (NP (PER (CD one)))(PP (IN of)(NP (DT the)(GPE (NN country))))) |ET| 
-0.087512251331843329826831734408188  |BT| (NP (NP (GPE (NNP North)(NNP Rhine-Westphalia)))(, ,)(NP (NP (NNP Germany)(POS 's))(ADJP (RBS most)(JJ populous))(GPE (NN state)))) |ET| 
-0.065073617096585101293726438598242  |BT| (NP (NP (PER (NN pick)))(PP (IN of)(NP (ORG (DT the)(NNP Miami)(NNS Dolphins))))) |ET| 
-0.14373788421310923490992195183935  |BT| (S (NP (NP (VEH (DT each)))(PP (IN of)(NP (PRP$ our)(NN aircraft))))(VP (VBZ generates)(NP (PER (NN shareholder))))) |ET| 
-0.15766285230863924526900632372417  |BT| (S (NP (NP (NP (PER (DT some)))(PP (IN with)(NP (NNS shields))))(, ,))(VP (VBD stood)(PRT (RP around))(S (NP (DT the)(PER (NNS protesters)))))) |ET| 
-0.065411327989853371156492300997343  |BT| (NP (NP (ORG (NNS stations)))(PP (IN in)(NP (GPE (NNP Maine))))) |ET| 
-0.14041861481706607861497104750015  |BT| (S (NP (NP (GPE (NNP Qatar)))(CC and)(NP (NNP Algeria)))(VP (VBD were)(NP (ORG (DT the)(JJ only)(NNP Arab)(NNP League))))) |ET| 
-0.12055179466877352645326482161181  |BT| (S (S (VP (PP (NP (PER (PRP him))))))(PRN (, ,)('' '')(S (NP (NP (CD one))(PP (IN of)(NP (PRP$ his)(NNP Pirate)(PER (NNS teammates)))))))) |ET| 
-0.31260909574279632794358008140989  |BT| (S (NP (ORG (NN committee))(NNS members))(VP (VBD raised)(NP (QP (IN at)(JJS least)($ $)(CD 100,000)))(PP (IN for)(NP (NP (NNP Bush)(POS 's))(NN campaign)))(: :)(NP (PER (NNP Bill)(NNP DeWitt))))) |ET| 
-0.097270471158600935179805446750834  |BT| (NP (NP (PER (NN native)))(PP (IN of)(NP (NP (NNP Burlington))(, ,)(NP (GPE (NNP N.C.)))))) |ET| 
-0.075847974898016798372957225637947  |BT| (NP (LOC (NN area))(PER (NNS voters))) |ET| 
-0.11215447098935893421867149299942  |BT| (PER (NP (GPE (NN country))(POS 's))(JJS most)(NX (NX (JJ senior)(NNS politicians))(CC and)(NX (NN underworld)(NNS figures)))) |ET| 
-0.095645589102850647744702428099117  |BT| (NP (NP (ORG (NN organization)))(PP (IN of)(NP (CD 60)(NNP Washington)(PER (NNS journalists))))) |ET| 
-0.22915221406880795229632497012062  |BT| (NP (NP (ORG (NNP Copley))(NNS newspapers))(, ,)(PP (VBG including)(NP (ORG (DT The)(NN Courier)(NNP News))))) |ET| 
-0.088861773522615761233822695430717  |BT| (NP (NP (PER (NN commander)))(PP (IN of)(NP (GPE (JJ Israeli))))) |ET| 
-0.089099278240349244484264090715442  |BT| (NP (PER (NNS homosexuals))(CC and)(PER (NNS heterosexuals))) |ET| 
-0.076364477658987600650064564433706  |BT| (S (NP (PER (NNS candidates)))(VP (VBP are)(VP (ADVP (RB fiercely))(VBG wooing)(NP (NP (DT a)(VBG dwindling)(NN band))(PP (IN of)(NP (JJ undecided)(PER (NNS voters)))))))) |ET| 
-0.14910185387033680903812182805268  |BT| (NP (NP (PER (NNS graduates)))(CC and)(NP (JJ unmarried)(PER (NNS voters)))) |ET| 
-0.093614739960430778942246377027914  |BT| (S (NP (PER (PRP you)))(VP (VBP hear)(NP (DT the)(PER (NNS individuals))))) |ET| 
-0.12428517786887649521077037206851  |BT| (NP (NP (ORG (NNS clubs)))(, ,)(NP (PER (NNS students)))) |ET| 
-0.55485128125466132154031129175564  |BT| (NP (NP (PER (JJ Many)))(PP (IN of)(NP (PER (PRP$ his))))) |ET| 
-0.054855707152444026231119522662993  |BT| (VP (NP (PER (PRP himself)))(SBAR (IN as)(S (NP (NP (DT the)(NN country)(POS 's))(JJS best)(PER (NN hope)))))) |ET| 
-0.20218256649830923521449221880175  |BT| (NP (NP (PER (NNS members)))(PP (IN of)(NP (DT the)(PER (NNP Milosevic))))) |ET| 
-0.082263885597450694953103322859533  |BT| (S (NP (PER (DT Some)))(ADVP (RB even))(VP (VBP have)(NP (DT a)(LOC (NN neighborhood))))) |ET| 
-0.14169606602067555400914500296494  |BT| (S (NP (PER (NNS members)))(VP (VBD raised)(NP (QP (IN at)(JJS least)($ $)(CD 100,000)))(PP (IN for)(NP (NP (NNP Bush)(POS 's))(NN campaign)))(: :)(NP (NP (NNP Bill)(NNP DeWitt)(CC and)(NNP Mercer)(NNP Reynolds))(, ,)(NP (NP (NNS co-chairs))(PP (IN of)(NP (NP (DT the)(JJ Ohio-based)(NN investment)(NN firm))(PP (IN of)(NP (NNP Reynolds)(, ,)(NNP DeWitt)(CC and)(NNP Company))))))(: ;)(NP (NP (NNP Brad)(NNP Freeman))(, ,)(NP (DT a)(GPE (NNP California))))))) |ET| 
-0.041861382487814381703206123575001  |BT| (VP (PP (NP (ORG (NNS rivals))))(, ,)(PP (VBG going)(NP (NP (CD 6-14))(PP (IN against)(NP (ORG (NNP Georgia)(NNP Tech))))))) |ET| 
-0.066781680236501272940330409255694  |BT| (NP (NP (PER (NNP Steven)(NNP H.)(NNP Forrester)))(PP (IN of)(NP (NP (NNP Bellevue))(, ,)(NP (GPE (NNP Wash)))))) |ET| 
-0.085746694659294520057812860613922  |BT| (NP (NP (ORG (NNP Northwest))(POS 's))(PER (NNS lawyers))) |ET| 
-0.064824518267446715191759665231075  |BT| (NP (NP (GPE (NNS states)))(, ,)(ADVP (RB respectively))(, ,)(PP (IN of)(NP (NNP Vice)(NNP President)(NP (PER (NNP Al)(NNP Gore)))))) |ET| 
-0.10545771501239895040491489908163  |BT| (NP (NP (PER (JJ Many)))(PP (IN of)(NP (NP (DT those))(SBAR (WHNP (PER (WP who))))))) |ET| 
-0.061582642809933751948392455233261  |BT| (NP (NP (PER (NNS lawyers)))(, ,)(NP (VBN retired)(NN army)(NNS generals))(CC and)(NP (JJ other)(PER (NNS backers)))) |ET| 
-0.075116310504855121621403668541461  |BT| (NP (NP (ORG (NNS parties)))(, ,)(NP (NN sport)(NNS clubs))(, ,)(NP (PER (NNS students)))) |ET| 
-0.093333140105008982612133650036412  |BT| (NP (NP (PER (NN professor)))(PP (IN of)(NP (NNS economics)))(PP (IN at)(NP (ORG (NP (DT the)(NNP University))(PP (IN of)(NP (NNP Texas)))(PP (IN at)(NP (NNP Austin))))))) |ET| 
-0.046251032045468098985452343185898  |BT| (S (NP (GPE (NNP Banda)(NNP Aceh)))(, ,)(NP (GPE (JJ Indonesian)))) |ET| 
-0.091217937911947946649782181793853  |BT| (S (PP (NP (GPE (NNP Hebron))))(, ,)(NP (NP (NNS thousands))(PP (IN of)(NP (PER (NNS mourners)))))) |ET| 
-0.045277838666526376565357736581063  |BT| (NP (NP (PP (NP (ORG (NNS schools)))))(, ,)(NP (NP (CD 17)(NN percent))(PP (IN at)(NP (JJ two-year)(NN community)(NNS colleges))))(CC and)(NP (PER (CD 1)(NN percent)))) |ET| 
-0.089603483676262696278058683674317  |BT| (NP (PER (NNS co-workers))(CC and)(PER (NNS friends))) |ET| 
-0.089034527629577753238265813706676  |BT| (NP (PER (NNS programmers))(CC and)(PER (NNS reporters))) |ET| 
-0.069338788667832051970663087558933  |BT| (NP (NP (PER (NN band))(POS 's))(PER (NN manager))) |ET| 
-0.07870538905875182345006635387108  |BT| (S (NP (NP (PER (NNS Critics)))(PP (IN of)(NP (NP (NNP Indonesia)(POS 's))(JJ legal)(NN system))))(VP (VBP have)(VP (VBN accused)(NP (GPE (PRP it)))))) |ET| 
-0.08518483363716788936415014177328  |BT| (NP (PER (NNS shareholders))(CC and)(NN industry)(PER (NNS analysts))) |ET| 
-0.084295934464507421557399879930017  |BT| (NP (NP (PER (NN member)))(PP (IN of)(NP (DT the)(NN school)(ORG (NN board))))) |ET| 
-0.075453597081121620560040241798561  |BT| (UCP (PP (NP (PER (PRP him))))(, ,)(SQ (MD may)(NP (DT the)(JJ American)(GPE (NN public))))) |ET| 
-0.072251889632547000585915952797222  |BT| (S (NP (PER (NNS hard-liners)))(VP (VBD had)(VP (VBN opposed)(NP (NP (DT the)(NN tricolor)(NN flag))(CC and)(NP (DT the)(NNP eagle)))(PP (IN as)(NP (NP (DT a)(NN vestige))(PP (IN of)(NP (DT the)(PER (NNS Czars))))))))) |ET| 
-0.12431056246966076805904322100105  |BT| (VP (PP (NP (ORG (NNS outlets))))(S (VP (TO to)(VP (VB convey)(NP (NP (DT the)(NN video)(POS 's))(NN message))(PP (TO to)(NP (PER (NNS voters)))))))) |ET| 
-0.052629180576202916341799209476449  |BT| (NP (WEA (JJ nuclear))(WEA (NNS weapons))) |ET| 
-0.14624136595823902795565629730845  |BT| (NP (NP (PER (NNS people)))(PP (IN of)(NP (GPE (NNP Serbia))))) |ET| 
-0.059281239908643090785744789172895  |BT| (NP (ORG (NNP U.N.))(NN member)(GPE (NNS states))) |ET| 
-0.10341206557096729867772921807045  |BT| (S (NP (PER (NNP Bush)))(VP (VBD won)(NP (NP (DT the)(NN support))(PP (IN of)(NP (PER (DT those))))))) |ET| 
-0.046185687635965491648626368714758  |BT| (NP (NP (PER (NNS voters)))(, ,)(NP (NNPS Democrats))(, ,)(NP (NNS liberals))(CC and)(NP (ADJP (JJ black)(, ,)(NNP Hispanic)(CC and)(NNP Asian))(PER (NNS voters)))) |ET| 
-0.11815328641049727131928648304893  |BT| (NP (NP (ORG (JJ many)))(PP (IN of)(NP (DT the)(JJ other)(CD 85)(NNS companies)))(, ,)(SBAR (WHNP (WDT which))(S (NP (DT the)(PER (NN judge)))))) |ET| 
-0.027232584185834518564206518931314  |BT| (NP (NP (NP (ORG (NNPS Democrats))(POS '))(VBG continuing)(NN emphasis))(PP (IN on)(NP (NP (NNP Bush)(POS 's))(GPE (JJ home-state))))) |ET| 
-0.052810850249088214791726159091922  |BT| (S (NP (PER (DT Some)))(VP (VBD pointed)(PP (TO to)(NP (NP (DT the)(JJ recent)(NN demise))(PP (IN of)(NP (CD two)(JJ instant)(VBG messaging)(ORG (NNS competitors)))))))) |ET| 
-0.051892828301618454389654289116152  |BT| (NP (NP (PER (NNS visitors)))(CC or)(NP (JJ would-be)(PER (NNS members)))) |ET| 
-0.17789659329299056800266498612473  |BT| (S (NP (SBAR (WHNP (PER (WP who)))(S (VP (VBD were)(RB not)(VP (VBG advising)(NP (NNS clients))(S (VP (TO to)(VP (VB buy)(NP (DT the)(NN stock))))))))))(, ,)(PP (IN like)(NP (PER (NNP Charles)(NNP R.)(NNP Wolf))))) |ET| 
-0.076153451083783796349280237336643  |BT| (S (NP (PER (NNS Moderates)))(VP (VBP have)(VP (VBN won)(NP (NP (NN control))(PP (IN of)(NP (NP (NNP Vancouver)(POS 's))(JJS largest)(PER (JJ Sikh)))))))) |ET| 
-0.068256080565155044515002202842879  |BT| (S (NP (NP (PER (NNP Ralph)(NNP Nader)))(, ,)(SBAR (WHNP (WP who))(S (VP (VBD received)(NP (NP (CD 2)(NN percent))(PP (IN of)(NP (DT the)(NN vote)))))))(, ,))(VP (VBD did)(ADVP (RBS best))(PP (IN among)(NP (NP (NNS independents))(PRN (, ,)(ADVP (RB particularly))(NP (JJ liberal)(PER (NNS ones)))))))) |ET| 
-0.11396911941274021073944311410742  |BT| (NP (NP (PER (NN group)))(PP (IN of)(NP (PER (NNS investors))))) |ET| 
-0.046139194625778950920036436400551  |BT| (NP (NP (PER (NNS ladies)))(PP (IN of)(NP (NNP Bahrain)(, ,)(NNP Comoros)(, ,)(NNP Egypt)(, ,)(GPE (NNP Jordan))))) |ET| 
-0.054028577937985614032534442685574  |BT| (NP (GPE (JJ Israeli))(ORG (NNS companies))) |ET| 
-0.5943452905263770791322031072923  |BT| (S (NP (NP (GPE (JJ Many)))(PP (IN of)(NP (NP (NNP Germany)(POS 's))(NNS neighbors)))(, ,)(PP (VBG including)(NP (NNP France)(, ,)(NNP Italy)(CC and)(NNP Greece)))(, ,))(VP (VBP have)(NP (NP (JJ similar)(NNS laws))(VP (VBN meant)(S (VP (TO to)(VP (VB protect)(NP (PER (NNS authors)))))))))) |ET| 
-0.069981204214219425163712173798558  |BT| (NP (NP (LOC (NNS parts)))(PP (IN of)(NP (LOC (DT the)(NNP Persian)(NNP Gulf))))) |ET| 
-0.057825203733362195990252985211555  |BT| (WHNP (ORG (WP$ whose))(PER (NNS candidates))) |ET| 
-0.046462438350976506540312982451724  |BT| (NP (NP (ORG (NNP DJB)(NNPS Associates)(NNP LLC)))(PP (IN of)(NP (GPE (NNP Irvine))))) |ET| 
-0.1111973745385828049592191746342  |BT| (S (NP (NP (ORG (NNP College)(NNP Board)(POS 's)))(NNS figures))(VP (VB concern)(NP (NP (DT the)(NNS costs))(PP (IN for)(NP (NP (QP (CD 6.4)(CD million))(JJ full-time)(NNS undergraduates))(VP (VBG _)(NP (NP (NP (CD 54)(NN percent))(VP (VBG attending)(NP (JJ four-year)(JJ public)(NNS institutions))))(, ,)(NP (NP (CD 27)(NN percent))(PP (IN at)(NP (JJ four-year)(JJ private)(NNS schools))))(, ,)(NP (PER (CD 17)(NN percent)))))))))) |ET| 
-0.06370215224872090298280369324857  |BT| (S (NP (PER (NNP Haverty)))(, ,)(PP (IN like)(NP (ORG (JJ many)(JJ other)(NNP Time)(NNP Warner))))) |ET| 
-0.049821219779831782403789475210942  |BT| (S (NP (ORG (NNS manufacturers)))(VP (VBP are)(NP (ORG (NNS scapegoats))))) |ET| 
-0.39076962267371767589807518561429  |BT| (S (NP (PER (DT Some)))(VP (VBP have)(VP (VBN accused)(NP (PRP him))(PP (IN of)(S (VP (VBG orchestrating)(NP (NP (DT a)(NN spate))(PP (IN of)(NP (NNS assassinations)(SBAR (WHPP (IN in)(WHNP (WDT which)))(S (NP (NP (DT some))(PP (IN of)(NP (PER (NP (DT the)(NN country)(POS 's))(JJS most)(NX (NX (JJ senior)(NNS politicians))(CC and)(NX (NN underworld)(NNS figures)))))))))))))))))) |ET| 
-0.030983127918964736835505391354673  |BT| (NP (NP (PER (NNS prisoners)))(SBAR (S (NP (ORG (PRP it)))))) |ET| 
-0.058869765981142130328862549504265  |BT| (NP (NP (NP (PER (CD 9,174)))(PP (IN in)(NP (CD 1984))))(: ;)(NP (PER (CD 15,201)))) |ET| 
-0.047644843461701169573530023626518  |BT| (NP (NP (PER (NN editor)))(PP (IN of)(NP (NP (DT The)(NNP Indo-Canadian)(NNPS Times))(, ,)(NP (GPE (NNP North)(NNP America)))))) |ET| 
-0.061362447585812995853871143481229  |BT| (VP (NP (PP (NP (ORG (NNS media)))))(SBAR (S (NP (PER (PRP he)))))) |ET| 
-0.21050848588964202190432217776106  |BT| (S (NP (NP (ORG (NNS rivals)))(PP (IN like)(NP (NP (NNP Microsoft))(, ,)(NP (NP (NNP AT&AMP))(: ;)(NP (NN T)))(CC and)(NP (NNP ExciteAtHome)))))(VP (VBP maintain)(SBAR (S (NP (ORG (PRP$ their))))))) |ET| 
-0.044863664533959513036620592174586  |BT| (NP (PER (JJ Asian))(PER (NNS voters))) |ET| 
-0.053619364148320129703773062601613  |BT| (NP (NP (PER (NN favorite)))(PP (IN for)(NP (DT the)(PER (NN leadership))))) |ET| 
-0.037137792602395247598678906797431  |BT| (PER (NP (PRP He))(VP (VBZ needs)(S (VP (TO to)(VP (VB understand)(SBAR (IN that)(S (NP (NP (QP (JJR more)(IN than)(NN half)))(PP (IN of)(NP (DT the)(JJ American)(GPE (NN public)))))))))))) |ET| 
-0.032410157078692533594299618471268  |BT| (NP (NP (NP (PER (NN premier)))(PP (IN of)(NP (NNP British)(NNP Columbia))))(CC and)(NP (NP (NNP Canada)(POS 's))(JJ first)(JJ nonwhite)(GPE (JJ provincial)))) |ET| 
-0.047675261147743952516719900813769  |BT| (NP (NP (ORG (NN government)))(PP (IN of)(NP (NP (JJ Milosevic)(NNS cronies))(PP (VBG including)(NP (NNP Serbian)(NNP President)(NNP Milan)(NNP Milutinovic)(NNP _)))(PP (IN like)(NP (PER (NNP Milosevic))))))) |ET| 
-0.083163572394725854275421284000913  |BT| (S (NP (PER (NNS leaders)))(VP (VBP accuse)(NP (PER (PRP them))))) |ET| 
-0.20151932744779044170968518301379  |BT| (NP (NP (LOC (NN area)))(, ,)(SBAR (WHADVP (WRB where))(S (NP (NP (NN half))(PP (IN of)(NP (NP (DT the)(NN nation)(POS 's))(PER (NNPS Indo-Canadians)))))))) |ET| 
-0.025194779240484965754376389668323  |BT| (ORG (NNP Border)(NNP Patrol)(PER (NNS agents))) |ET| 
-0.045258579437668089440194307826459  |BT| (NP (NP (SBAR (S (VP (PP (NP (ORG (DT those))))))))(CC and)(NP (JJ other)(ADJP (RB financially)(JJ shaky))(ORG (NNS companies)))) |ET| 
-0.07373685930844722791199785660865  |BT| (NP (NP (ORG (DT all)))(PP (IN of)(NP (ORG (NNP Time)(NNP Warner))))) |ET| 
-0.036585049744775943736385670490563  |BT| (NP (PER (NNS teachers))(, ,)(NNS students)(CC and)(PER (NNS parents))) |ET| 
-0.031116489171904682109470741124824  |BT| (NP (NP (GPE (NNS countries)))(, ,)(PP (VBG including)(NP (NP (CD one))(PP (IN with)(NP (JJ former)(GPE (NNP Russian))))))) |ET| 
-0.04828570996221278471827176304032  |BT| (NP (NP (PER (JJ many)))(ADVP (GPE (RB here)))) |ET| 
-0.12836103417758454314778759908222  |BT| (S (PP (NP (NP (ORG (NNS clients)))(PP (IN of)(NP (NP (NN Word))(PP (IN of)(NP (JJ Net)))))))(, ,)(NP (PER (PRP he)))) |ET| 
-0.058710565476262188688849619211396  |BT| (NP (NP (PER (NNS members)))(PP (IN of)(NP (ORG (NNP congress))))) |ET| 
-0.036501537057932874341670270723625  |BT| (ORG (NP (NNP Organization))(PP (IN of)(NP (NP (NNP African)(NNP Unity))(, ,)(NP (DT the)(NNP European)(NNP Union))(CC and)(NP (GPE (NNS countries)))))) |ET| 
-0.20307855463684459929041281611717  |BT| (S (NP (PER (NNP Rania)))(VP (VBD told)(NP (NP (DT an)(NN audience))(PP (IN of)(NP (QP (JJR more)(IN than)(PER (CD 2,000)))))))) |ET| 
-0.0352032679128371217558424177696  |BT| (NP (PER (NNS personnel))(CC and)(FAC (NNS facilities))) |ET| 
-0.04533670955983251649179521791666  |BT| (NP (NP (PER (JJ secretary-general)))(PP (IN of)(NP (DT the)(ORG (NNS organizations))))) |ET| 
-0.036734829029090532159784743271302  |BT| (NP (NP (PER (NN wife)))(PP (IN of)(NP (NP (NNP Patrick)(NNP Roy))(, ,)(NP (NP (DT the)(NNP NHL)(POS 's))(JJS winningest)(PER (NN goalie)))))) |ET| 
-0.02844526863642427016998226463329  |BT| (NP (NP (NP (PER (NNP Irma)(NNP Levin)))(PP (IN of)(NP (NNP San)(NNP Francisco))))(: ;)(CC and)(NP (CD four)(PER (NNS grandchildren)))) |ET| 
-0.068783787884837299664297916024225  |BT| (S (NP (PER (NNS groups)))(VP (VBP _)(SBAR (S (NP (NP (NP (NNS voters))(PP (IN under)(NP (CD 65))))(, ,)(NP (NNS independents))(, ,)(NP (NP (NNS voters))(PP (IN from)(NP (NP (DT the)(NNP Midwest))(CC and)(NP (DT the)(NNP West)))))(CC and)(NP (NNS suburbanites)))(VP (VBP _)(VP (VBN divided)(NP (PER (PRP$ their))))))))) |ET| 
-0.02486724156611264113792003627168  |BT| (NP (NP (GPE (NNP Serbia)))(, ,)(NP (NP (NNP Yugoslavia)(POS 's))(JJ dominant)(NN republic))(, ,)(SBAR (WHADVP (ORG (WRB where))))) |ET| 
-0.015278568815406949610302689279706  |BT| (NP (GPE (JJ pro-Indonesian))(PER (NNS militias))) |ET| 
-0.012822952527890982971081612618036  |BT| (NP (NP (PER (NN justice)))(PP (IN of)(NP (ORG (DT the)(NNP Supreme)(NNP Court))))) |ET| 
-0.064116587003145930623304593609646  |BT| (NP (NP (PER (NN producer)))(PP (IN of)(NP (DT the)(PER (NNP Beatles))))) |ET| 
-0.00056218518939067999018455168425135  |BT| (S (NP (GPE (NNP Canada)))(VP (VBP have)(VP (VBN withdrawn)(NP (NN election)(PER (NNS observers)))))) |ET| 
-0.030514481213587449359714298680046  |BT| (NP (NP (PER (NN chairman)))(PP (IN of)(NP (NP (NN Victory)(CD 2000))(, ,)(NP (NP (DT the)(JJ joint)(NN effort))(PP (IN between)(NP (DT the)(NNP Bush)(NN campaign))))(CC and)(NP (ORG (DT the)(NNP Republican)(NNP National)(NNP Committee)))))) |ET| 
-0.091155210070068992678216091007926  |BT| (SBAR (WHADVP (LOC (WRB where)))(S (NP (DT the)(WEA (NNS bomblets))))) |ET| 
-0.028514848243167856267632487288211  |BT| (NP (NP (VEH (NN truck)))(PP (IN by)(NP (CD three)(JJ white)(PER (NNS men))))) |ET| 
-0.064871395817138410855307029123651  |BT| (NP (NP (PER (NN anyone)))(PRN (, ,)(ADVP (RB even))(NP (NP (DT those))(SBAR (WHNP (WP who))(S (VP (VBP do)(RB n't)(VP (VB subscribe)(PP (TO to)(NP (ORG (NNP AOL))))))))))) |ET| 
-0.0565813290517237360566227266645  |BT| (NP (NP (GPE (NN province)))(PP (IN of)(NP (GPE (NNP Irian)(NNP Jaya))))) |ET| 
-0.025902176233510258718251151321965  |BT| (VP (NP (PP (NP (PER (NN talker)))))(PP (IN as)(NP (NP (NNP President)(NNP Clinton)(POS 's))(PER (NN envoy))))) |ET| 
-0.023584504390018912189930233580526  |BT| (NP (ORG (NNS farms))(, ,)(ORG (NNS restaurants))) |ET| 
-0.06257526595129836444186821609037  |BT| (NP (NP (PER (NNS officials)))(CC or)(NP (DT the)(JJ local)(PER (NNS officials)))) |ET| 
-0.028288639291209630166612498669565  |BT| (VP (VP (PP (NP (PP (NP (GPE (NNS suburbs)))))))(, ,)(CC and)(RB then)(VP (VBD screened)(PRT (RP out))(NP (PER (DT all))))) |ET| 
-0.046724833500094889449094637257076  |BT| (S (NP (GPE (NNP Algeria)))(VP (VBD were)(NP (ORG (DT the)(JJ only)(NNP Arab)(NNP League))))) |ET| 
-0.025168117751175687890619059317032  |BT| (PP (PP (NP (PRN (NP (PER (NNS ones)))(, ,))))(CC and)(PP (IN among)(NP (JJ young)(PER (NNS men))))) |ET| 
-0.038567305427742892831588505941909  |BT| (S (NP (NP (PER (CD one)))(PP (IN of)(NP (PRP$ its)(JJ own))))(VP (VBN appointed)(SBAR (IN as)(S (NP (NP (NNP Yugoslavia)(POS 's))(JJ prime)(PER (NN minister))))))) |ET| 
-0.030147511817944172562988569552545  |BT| (NP (PP (NP (NP (GPE (NNP Germany))(POS 's))(NNS neighbors)))(, ,)(PP (VBG including)(NP (NNP France)(, ,)(NNP Italy)(CC and)(GPE (NNP Greece))))) |ET| 
-0.029139811376067345505269656769087  |BT| (VP (NP (WEA (NNS bomblets)(, ,)('' '')))(PP (IN at)(NP (NP (JJS least))(VP (ADVP (RB half))(VBG containing)(NP (NP (JJ deadly)(NN sarin)(NN nerve)(NN gas))(, ,)(SBAR (WHNP (WEA (WDT that))))))))) |ET| 
-0.021367187581148971986522155930288  |BT| (NP (NP (GPE (NN population)))(PP (IN of)(NP (QP (RB about)(CD 4.1)(CD million))(GPE (NNS people))))) |ET| 
-0.016089133556151713477788689488079  |BT| (NP (GPE (JJ Mexican))(PER (NNS nationals))) |ET| 
-0.20126778667821978996421705687681  |BT| (NP (NP (LOC (NNP Illinois))(NNP Copley)(NNS newspapers))(, ,)(PP (VBG including)(NP (NP (DT The)(NN Courier)(NNP News)(IN in)(NNP Elgin))(, ,)(NP (ORG (DT The)(NNP Beacon)(NNP News)))))) |ET| 
-0.026892697316403424423469914472662  |BT| (ORG (NNP Supreme)(NNP Court)(PER (NNS justices))) |ET| 
-0.023925576173828112108710186589633  |BT| (S (NP (PER (NNS parents)))(VP (VBD were)(PP (GPE (IN of)(`` ``)(NP (NNP Ivorian)))))) |ET| 
-0.017739144214721148939961636870066  |BT| (NP (NP (PER (NNS coordinators)))(NP (NP (NNP _)(NNP Miami))(NP (PER (JJ defensive)(NN coordinator)(NNP Greg)(NNP Schiano))))) |ET| 
-0.021695187114905895020555703922582  |BT| (S (S (VP (SBAR (S (VP (NP (PP (NP (SBAR (S (NP (WEA (NNS bomblets)))(VP (MD will)(VP (VB be)(VP (VBN disposed)(PP (IN of)(ADVP (ADVP (RB as)(RB safely))(CC and)(ADVP (RB as)(RB quickly))))(PP (IN as)(ADJP (JJ possible))))))))))))))))(, ,)('' '')(NP (PER (NNP Gov.)(NNP Bill)(NNP Owens)))) |ET| 
-0.04626648991389429449450076958783  |BT| (S (NP (PER (NNS members)))(VP (VBD raised)(NP (QP (IN at)(JJS least)($ $)(CD 100,000)))(PP (IN for)(NP (NP (NNP Bush)(POS 's))(NN campaign)))(: :)(NP (NP (NNP Bill)(NNP DeWitt)(CC and)(NNP Mercer)(NNP Reynolds))(, ,)(NP (NP (NNS co-chairs))(PP (IN of)(NP (NP (DT the)(JJ Ohio-based)(NN investment)(NN firm))(PP (IN of)(NP (ORG (NNP Reynolds)(, ,)(NNP DeWitt)(CC and)(NNP Company)))))))))) |ET| 
-0.024556990975031264823336130120879  |BT| (NP (NP (VEH (NNS cars)))(, ,)(PP (VBN plastered)(PP (IN with)(NP (PER (NNS candidates)))))) |ET| 
-0.02222599691825299927927517273929  |BT| (NP (LOC (JJ overseas))(PER (NNS traders))) |ET| 
-0.029968123564332760366824004449882  |BT| (NP (NP (ORG (NNPS Mets))(POS '))(PER (NNS pitchers))) |ET| 
-0.041660152791147986306441453052685  |BT| (VP (VP (NP (PP (NP (PER (NNS allies))))))(CC and)(VP (VBD prohibited)(NP (PER (PRP them))))) |ET| 
-0.020828425466937611210127556660154  |BT| (VP (NP (PER (PRP him)))(, ,)(PP (IN as)(NP (DT a)(NN security)(PER (NN guard))))) |ET| 
-0.032584360017793988217871259394087  |BT| (NP (NP (PER (NNS forces)))(PP (IN against)(NP (JJ Palestinian)(PER (NNS civilians))))) |ET| 
-0.044161566611863156683881470598863  |BT| (NP (NP (ORG (NP (NNP Socialist)(NNPS People)(POS 's))(NNP Party)))(PP (IN of)(NP (NP (NNP Montenegro))(, ,)(NP (DT the)(JJR smaller)(NNP Yugoslav)(GPE (NN republic)))))) |ET| 
-0.082744449229770200560096782282926  |BT| (NP (NP (GPE (NNS people)))(PP (IN of)(NP (GPE (NNP Canada))))) |ET| 
-0.022199654381243938416901073651388  |BT| (NP (GPE (JJ Libyan))(JJ secret)(PER (NNS agents))) |ET| 
-0.01389097199080180367047887557419  |BT| (NP (PP (NP (NP (GPE (NNP Indonesia)))(, ,)(NP (NP (DT the)(NN world)(POS 's))(ADJP (RBS most)(JJ populous))(NNP Muslim)(NN country))(, ,)))(PP (IN over)(NP (NP (NP (NNP Washington)(POS 's))(NN stance))(PP (IN on)(NP (DT the)(JJ Israeli)(GPE (JJ -Palestinian))))))) |ET| 
-0.028549802167589694718019543984155  |BT| (NP (NP (PER (NN audience)))(PP (IN of)(NP (NP (QP (JJR more)(IN than)(CD 2,000)))(PP (IN from)(NP (CD 19)(GPE (NNS countries))))))) |ET| 
-0.022144075817852732629420486887284  |BT| (VP (NP (GPE (NNS states)))(PP (IN from)(NP (NP (NNS lawsuits))(VP (VBN brought)(PP (IN by)(NP (PRP$ their)(JJ public)(PER (NNS employees)))))))) |ET| 
-0.036129783708099161287918832385913  |BT| (NP (NP (WEA (NNP rifle)))(PP (IN on)(NP (NP (NNS hundreds))(PP (IN of)(NP (PER (NNS students))))))) |ET| 
-0.021977022156081462561649786380258  |BT| (NP (NP (NP (PER (NNS coaches))(NNP Gary)(NNP Darnell))(PP (IN of)(NP (NNP Western)(NNP Michigan))))(, ,)(NP (NP (NNP Gary)(NNP Pinkel))(PP (IN of)(NP (NNP Toledo))))(CC and)(NP (CD two)(PER (NNS coordinators)))) |ET| 
-0.015527364875786320297379461408127  |BT| (NP (PER (NN player))(PER (NN representative))) |ET| 
-0.019300933034099135993111318043702  |BT| (WHNP (ORG (DT both))(WHPP (IN of)(WHNP (ORG (WDT which))))) |ET| 
-0.018611198046911442416373461128387  |BT| (NP (NP (PER (NNS Members)))(PP (IN of)(NP (ORG (DT the)(NN opposition)(NNP Democratic)(NNP Revolution)(NNP Party))))) |ET| 
-0.024815902287218083444031435647048  |BT| (NP (NP (PER (NNS surrogates)))(, ,)(PP (VBG including)(NP (NP (NP (PRP$ his)(VBG running)(NN mate))(, ,)(NP (NNP Sen.)(NNP Joseph)(NNP Lieberman))(, ,))(CC and)(NP (NP (NP (DT the)(NNP Democratic)(NNP National)(NNP Committee)(POS 's))(JJ national)(NN chairman))(, ,)(NP (PER (NNP Joe)(NNP Andrew))))))) |ET| 
-0.015118997005425516277909991913475  |BT| (NP (GPE (JJ Chinese))(PER (NNS researchers))) |ET| 
-0.014217646692438960787097101956533  |BT| (NP (NP (PER (NN chief)))(PP (IN of)(NP (NNP South)(GPE (NNP Jakarta))))) |ET| 
-0.053119408149483265946244614497118  |BT| (S (NP (ORG (NNP Democratic)(NNP Party)))(VP (VBZ has)(ADVP (RB also))(VP (VBN been)(VP (VBG running)(NP (NNS commercials))(PP (IN in)(NP (NP (NNS cities))(PP (IN like)(NP (NP (NNP Seattle))(, ,)(NP (NP (NNP Des)(NNP Moines))(, ,)(NP (NNP Iowa))(, ,))(CC and)(NP (GPE (NNP Tampa))))))))))) |ET| 
-0.015698987768019791178009114673841  |BT| (NP (NP (PER (NNP Julie)(NNP Duncan)))(PP (IN of)(NP (GPE (NNP Seattle))))) |ET| 
-0.044400832768340628420311588797631  |BT| (VP (PP (NP (ORG (NNS commissions))))(PP (IN with)(NP (NP (JJ key)(NNS countries))(, ,)(PP (VBG including)(NP (NP (CD one))(PP (IN with)(NP (JJ former)(GPE (NNP Russian))))))))) |ET| 
-0.024354448576452421282301230576195  |BT| (S (S (NP (PER (DT some)))(VP (VBP have)(ADVP (RB already))(VP (VBN left))))(, ,)(NP (PER (PRP he)))) |ET| 
-0.014088686655077564680027535359841  |BT| (NP (GPE (JJ Russian))(PER (NNS lawmakers))) |ET| 
-0.024206178964571851280895842251084  |BT| (S (NP (GPE (NP (NNP Florida))(CC and)(NP (NP (NNP Pennsylvania)(NNP _))(PP (IN among)(NP (NP (DT the)(JJ tossup)(NNS states))(PP (IN in)(NP (DT the)(JJ presidential)(NN race)(NN _))))))))(VP (VBP have)(NP (NP (DT a)(JJ large)(NN number))(PP (IN of)(NP (JJR older)(PER (NNS people))))))) |ET| 
-0.010913070230112580441539371634008  |BT| (VP (PP (NP (ORG (NNS groups))))(PP (IN of)(S (VP (VBG mistreating)(NP (DT the)(NN minority))(NP (NNP Shiite)(PER (NNPS Muslims))))))) |ET| 
-0.011906775821663190262356124549115  |BT| (VP (NP (GPE (NNP Seattle)))(PP (IN with)(NP (NP (NNP Bush)(POS 's))(ADJP (GPE (NNP Texas)))))) |ET| 
-0.011894265419415748011311428911085  |BT| (SBAR (WHNP (ORG (WDT which)))(S (VP (VBZ has)(VP (VBN been)(VP (VBN dominated)(PP (IN by)(NP (NP (DT the)(NN nation)(POS 's))(PER (NN president))))))))) |ET| 
-0.0088704818388369854886832399643026  |BT| (NP (VEH (NN motorcycle))(ORG (NNS periodicals))) |ET| 
-0.010170741829629882657659578626408  |BT| (NP (FAC (NN prison))(PER (NNS doctors))) |ET| 
-0.011232535419983813440580888709519  |BT| (NP (NP (LOC (NN middle)))(PP (IN of)(NP (GPE (NN town))))) |ET| 
-0.010950633920309428906425530669821  |BT| (NP (NP (PP (NP (ORG (NNP Western)(NNP Michigan)))))(, ,)(NP (NP (NNP Gary)(NNP Pinkel))(PP (IN of)(NP (NNP Toledo))))(CC and)(NP (CD two)(PER (NNS coordinators)))) |ET| 
-0.056702383029175074113936716457829  |BT| (S (NP (PER (NNS candidates)))(VP (VBD _)(SBAR (S (PP (VBG including)(NP (NP (DT those))(PP (IN from)(NP (DT the)(GPE (NN country)))))))))) |ET| 
-0.014383126700316051227446223492734  |BT| (NP (GPE (JJ Canadian))(PER (NNS authorities))) |ET| 
-0.029267771398094912654874732993449  |BT| (NP (NP (PER (NNP Rania)))(PP (IN of)(NP (NP (NNP Jordan))(, ,)(NP (NP (NNP Egypt)(POS 's))(NNP Suzanne)(NNP Mubarak))(CC and)(NP (PER (NNS others)))))) |ET| 
-0.044224072308626731497849249308274  |BT| (S (NP (PER (NNS groups)))(VP (VBP _)(SBAR (S (NP (NP (NP (NNS voters))(PP (IN under)(NP (CD 65))))(, ,)(NP (NNS independents))(, ,)(NP (NP (NNS voters))(PP (IN from)(NP (NP (DT the)(NNP Midwest))(CC and)(NP (DT the)(LOC (NNP West))))))))))) |ET| 
-0.011508279055344683428074858966284  |BT| (NP (PER (NNS authors))(CC and)(PER (NNS musicians))) |ET| 
-0.010576925764719746769770836181124  |BT| (NP (NP (PER (NN chairman)))(PP (IN of)(NP (ORG (DT the)(NNP House)(NNP Republican)(NNP Conference))))) |ET| 
-0.042870638093791275935462437018941  |BT| (NP (NP (ORG (DT The)(NNP News)(NNP Sun)))(CC and)(NP (NP (JJ other)(JJ northern)(NNP Illinois)(NNP Copley)(NNS newspapers))(, ,)(PP (VBG including)(NP (NP (DT The)(NN Courier)(NNP News)(IN in)(NNP Elgin))(, ,)(NP (ORG (DT The)(NNP Beacon)(NNP News))))))) |ET| 
-0.012521968438627517627992347115651  |BT| (LOC (NNP Middle)(NNP East)(ORG (NNS companies))) |ET| 
-0.0080818323890141548215826361456493  |BT| (NP (NP (PER (NNS residents)))(PP (IN of)(NP (DT a)(JJ recreational)(VEH (NN vehicle))))) |ET| 
-0.0065783284924322282805064787680749  |BT| (S (NP (SBAR (S (VP (NP (PP (NP (ORG (NNP Taliban))))))))(, ,))(VP (VBZ is)(ADVP (RB mostly))(VP (VBN made)(PRT (RP up))(PP (IN of)(NP (NP (DT the)(NN country)(POS 's))(NN minority)(JJ ethnic)(CC and)(JJ religious)(PER (NNS groups))))))) |ET| 
-0.005794536256564564169480036071036  |BT| (ORG (NNP Arizona)(NNP State)(PER (NNS boosters))) |ET| 
-0.024593998948202425158804373950261  |BT| (NP (NP (PER (NN majority)))(PP (IN of)(NP (NP (NNS women))(, ,)(NP (JJR older)(NNS voters))(, ,)(NP (NNPS Democrats))(, ,)(NP (NNS liberals))(CC and)(NP (ADJP (JJ black)(, ,)(PER (NNP Hispanic))))))) |ET| 
-0.0063334694310709371833922887162771  |BT| (S (NP (PER (NNS lawyers)))(VP (VBD said)(SBAR (S (NP (ORG (NNS airlines))))))) |ET| 
-0.0068691191023484421407374611590058  |BT| (NP (NP (PER (NN choice)))(PP (IN of)(NP (ORG (NP (DT the)(NNP San)(NNP Francisco))(NNS 49ers))))) |ET| 
-0.0073082382106656714262915564006562  |BT| (NP (NP (PER (NNS lawyers)))(, ,)(NP (VBN retired)(NN army)(PER (NNS generals)))) |ET| 
-0.0076037207939778075557746284118821  |BT| (NP (NP (PER (NN director)))(PP (IN of)(NP (ORG (NP (NP (DT the)(NNP SEC)(POS 's))(NN division))(PP (IN of)(NP (NN investment)(NN management))))))) |ET| 
-0.0040002818260205935674278521219094  |BT| (VP (PP (NP (PER (NNS owners))))(PP (IN through)(NP (VBG recording)(NX (ORG (NNS houses)))))) |ET| 
-0.0056248769653939358070804388489705  |BT| (NP (NP (PER (NNS members)))(PP (IN of)(NP (ORG (PRP$ his)(NNP Federalist)(NNP Party))))) |ET| 
